{"learner":{"attributes":{"scikit_learn":"{\"_estimator_type\": \"classifier\"}"},"feature_names":[],"feature_types":[],"gradient_booster":{"model":{"cats":{"enc":[],"feature_segments":[],"sorted_idx":[]},"gbtree_model_param":{"num_parallel_tree":"1","num_trees":"400"},"iteration_indptr":[0,1,2,3,4,5,6,7,8,9,10,11,12,13,14,15,16,17,18,19,20,21,22,23,24,25,26,27,28,29,30,31,32,33,34,35,36,37,38,39,40,41,42,43,44,45,46,47,48,49,50,51,52,53,54,55,56,57,58,59,60,61,62,63,64,65,66,67,68,69,70,71,72,73,74,75,76,77,78,79,80,81,82,83,84,85,86,87,88,89,90,91,92,93,94,95,96,97,98,99,100,101,102,103,104,105,106,107,108,109,110,111,112,113,114,115,116,117,118,119,120,121,122,123,124,125,126,127,128,129,130,131,132,133,134,135,136,137,138,139,140,141,142,143,144,145,146,147,148,149,150,151,152,153,154,155,156,157,158,159,160,161,162,163,164,165,166,167,168,169,170,171,172,173,174,175,176,177,178,179,180,181,182,183,184,185,186,187,188,189,190,191,192,193,194,195,196,197,198,199,200,201,202,203,204,205,206,207,208,209,210,211,212,213,214,215,216,217,218,219,220,221,222,223,224,225,226,227,228,229,230,231,232,233,234,235,236,237,238,239,240,241,242,243,244,245,246,247,248,249,250,251,252,253,254,255,256,257,258,259,260,261,262,263,264,265,266,267,268,269,270,271,272,273,274,275,276,277,278,279,280,281,282,283,284,285,286,287,288,289,290,291,292,293,294,295,296,297,298,299,300,301,302,303,304,305,306,307,308,309,310,311,312,313,314,315,316,317,318,319,320,321,322,323,324,325,326,327,328,329,330,331,332,333,334,335,336,337,338,339,340,341,342,343,344,345,346,347,348,349,350,351,352,353,354,355,356,357,358,359,360,361,362,363,364,365,366,367,368,369,370,371,372,373,374,375,376,377,378,379,380,381,382,383,384,385,386,387,388,389,390,391,392,393,394,395,396,397,398,399,400],"tree_info":[0,0,0,0,0,0,0,0,0,0,0,0,0,0,0,0,0,0,0,0,0,0,0,0,0,0,0,0,0,0,0,0,0,0,0,0,0,0,0,0,0,0,0,0,0,0,0,0,0,0,0,0,0,0,0,0,0,0,0,0,0,0,0,0,0,0,0,0,0,0,0,0,0,0,0,0,0,0,0,0,0,0,0,0,0,0,0,0,0,0,0,0,0,0,0,0,0,0,0,0,0,0,0,0,0,0,0,0,0,0,0,0,0,0,0,0,0,0,0,0,0,0,0,0,0,0,0,0,0,0,0,0,0,0,0,0,0,0,0,0,0,0,0,0,0,0,0,0,0,0,0,0,0,0,0,0,0,0,0,0,0,0,0,0,0,0,0,0,0,0,0,0,0,0,0,0,0,0,0,0,0,0,0,0,0,0,0,0,0,0,0,0,0,0,0,0,0,0,0,0,0,0,0,0,0,0,0,0,0,0,0,0,0,0,0,0,0,0,0,0,0,0,0,0,0,0,0,0,0,0,0,0,0,0,0,0,0,0,0,0,0,0,0,0,0,0,0,0,0,0,0,0,0,0,0,0,0,0,0,0,0,0,0,0,0,0,0,0,0,0,0,0,0,0,0,0,0,0,0,0,0,0,0,0,0,0,0,0,0,0,0,0,0,0,0,0,0,0,0,0,0,0,0,0,0,0,0,0,0,0,0,0,0,0,0,0,0,0,0,0,0,0,0,0,0,0,0,0,0,0,0,0,0,0,0,0,0,0,0,0,0,0,0,0,0,0,0,0,0,0,0,0,0,0,0,0,0,0,0,0,0,0,0,0,0,0,0,0,0,0,0,0,0,0,0,0,0,0,0,0,0,0,0,0,0,0,0,0,0,0,0,0,0,0,0,0,0,0,0,0],"trees":[{"base_weights":[3.9024162E-3,-4.2284942E-1,1E0,2.8068417E-1,-7.8477246E-1,5.132936E-1,1E0,6.723847E-1,7.198744E-2,-9.8953336E-1,-2.3870476E-1,1E0,-3.486792E-2,1E0,-5.8274937E-1,5.420236E-1,9.8593414E-1,-1.608707E-1,5.5014515E-1,-1.6850843E-1,-1E0,6.312103E-1,-3.90482E-1,1E0,-5E-2,-3.468995E-1,9.4793886E-1,1E0,-5E-2,-5E-2,1E0,5E-2,2.3623548E-2,-5E-2,5E-2,-1.7031893E-2,1.35781905E-2,1.5554882E-2,5E-2,-1.2789636E-2,3.6289852E-2,-5E-2,8.497737E-3,5E-2,1.9572556E-2,-2.846002E-2,1.586549E-2,-5.3802743E-3,5E-2,1.6701967E-2,-3.5142582E-2,-3.5734873E-2,5E-2,5E-2,-5E-2,-5E-2,5E-2],"categories":[],"categories_nodes":[],"categories_segments":[],"categories_sizes":[],"default_left":[0,0,0,0,0,0,0,0,0,0,0,0,0,0,0,0,0,0,0,0,0,0,0,0,0,0,0,0,0,0,0,0,0,0,0,0,0,0,0,0,0,0,0,0,0,0,0,0,0,0,0,0,0,0,0,0,0],"id":0,"left_children":[1,3,5,7,9,11,13,15,17,19,21,23,25,27,29,31,33,35,37,39,41,43,45,47,-1,49,51,53,-1,-1,55,-1,-1,-1,-1,-1,-1,-1,-1,-1,-1,-1,-1,-1,-1,-1,-1,-1,-1,-1,-1,-1,-1,-1,-1,-1,-1],"loss_changes":[3.3810647E5,1.1799373E5,3.99875E3,1.2867899E4,3.421347E4,5.054759E3,6.381875E2,2.2359688E3,1.1434726E4,1.7827E4,1.1018256E4,7.25E2,2.5933762E3,2.67E2,6.058137E2,1.8903428E3,6.638955E2,5.369015E3,3.6203027E3,2.0157761E3,1.12744375E4,1.1645195E3,8.988006E3,3.499912E2,0E0,1.5560054E3,4.093722E2,2.05E2,0E0,0E0,4.1E1,0E0,0E0,0E0,0E0,0E0,0E0,0E0,0E0,0E0,0E0,0E0,0E0,0E0,0E0,0E0,0E0,0E0,0E0,0E0,0E0,0E0,0E0,0E0,0E0,0E0,0E0],"parents":[2147483647,0,0,1,1,2,2,3,3,4,4,5,5,6,6,7,7,8,8,9,9,10,10,11,11,12,12,13,13,14,14,15,15,16,16,17,17,18,18,19,19,20,20,21,21,22,22,23,23,25,25,26,26,27,27,30,30],"right_children":[2,4,6,8,10,12,14,16,18,20,22,24,26,28,30,32,34,36,38,40,42,44,46,48,-1,50,52,54,-1,-1,56,-1,-1,-1,-1,-1,-1,-1,-1,-1,-1,-1,-1,-1,-1,-1,-1,-1,-1,-1,-1,-1,-1,-1,-1,-1,-1],"split_conditions":[5.1E1,6E0,5.7E1,4.9E1,2E0,1.2E1,9.99E2,5.1E-1,1.98E1,1.04E2,1.11E2,5.4E1,3.79E1,5.95E1,1.21E2,6.25E1,4.55E1,3.7325E1,9.2783505E-1,3.756E1,1.15E1,9E1,3.806E1,5.9E1,-5E-2,8.85E1,8.610633E0,7.3E1,-5E-2,-5E-2,1.575E1,5E-2,2.3623548E-2,-5E-2,5E-2,-1.7031893E-2,1.35781905E-2,1.5554882E-2,5E-2,-1.2789636E-2,3.6289852E-2,-5E-2,8.497737E-3,5E-2,1.9572556E-2,-2.846002E-2,1.586549E-2,-5.3802743E-3,5E-2,1.6701967E-2,-3.5142582E-2,-3.5734873E-2,5E-2,5E-2,-5E-2,-5E-2,5E-2],"split_indices":[112,72,112,1,231,72,139,71,191,209,209,21,243,52,86,216,95,248,241,244,51,209,246,97,0,217,221,110,0,0,195,0,0,0,0,0,0,0,0,0,0,0,0,0,0,0,0,0,0,0,0,0,0,0,0,0,0],"split_type":[0,0,0,0,0,0,0,0,0,0,0,0,0,0,0,0,0,0,0,0,0,0,0,0,0,0,0,0,0,0,0,0,0,0,0,0,0,0,0,0,0,0,0,0,0,0,0,0,0,0,0,0,0,0,0,0,0],"sum_hessian":[6.04758E5,4.6340006E5,1.4135794E5,1.5741161E5,3.0598844E5,1.6883975E4,1.2447397E5,5.471515E4,1.0269646E5,2.2254075E5,8.34477E4,8.42939E3,8.454586E3,1.2421981E5,2.5415445E2,3.8649145E4,1.6066004E4,6.906375E4,3.363271E4,2.5820436E4,1.9672031E5,1.2396084E4,7.105162E4,8.33864E3,9.075E1,6.417681E3,2.0369043E3,1.2418631E5,3.35E1,1.5575E2,9.840445E1,2.7234966E3,3.592565E4,1.0149045E2,1.5964514E4,4.8783992E4,2.027976E4,2.1971258E4,1.1661453E4,2.3525098E4,2.2953374E3,1.8848381E5,8.236501E3,4.6969756E3,7.699108E3,5.6727934E4,1.4323681E4,2.851067E2,8.0535327E3,2.2031335E3,4.214548E3,1.4045222E2,1.8964521E3,1.2416056E5,2.575E1,5.25E0,9.315445E1],"tree_param":{"num_deleted":"0","num_feature":"272","num_nodes":"57","size_leaf_vector":"1"}},{"base_weights":[7.2817802E-3,6.6504437E-1,-3.982865E-1,8.3468306E-1,-1.0787592E-1,2.2752084E-1,-6.209873E-1,1E0,5.808158E-1,-5.0497824E-1,5.2625126E-1,-6.5010816E-2,1E0,-8.11442E-1,-6.410327E-2,1.65347E-1,1E0,3.5396233E-1,9.86522E-1,-6.5331364E-1,5.1578456E-1,1E0,3.5254142E-1,3.905678E-1,-4.829995E-1,1E0,-5E-2,-1.6418102E-1,-9.533239E-1,-2.073993E-1,5.2413195E-1,3.4649536E-2,-3.55105E-2,5E-2,1.7982287E-2,3.1552303E-3,3.4087215E-2,3.717527E-2,5E-2,-1.2198453E-3,-4.173982E-2,4.167525E-2,-5E-2,5E-2,-2.8844392E-2,-3.3453808E-3,3.4790754E-2,1.0016984E-2,5E-2,-3.900215E-2,5.288705E-3,5E-2,-5E-2,-1.5946334E-2,2.6560321E-2,-5E-2,1.671293E-2,2.7052075E-2,-1.7031385E-2,-2.862835E-2,3.2394245E-2],"categories":[],"categories_nodes":[],"categories_segments":[],"categories_sizes":[],"default_left":[0,0,0,0,0,0,0,0,0,0,0,0,0,0,0,0,0,0,0,0,0,0,0,0,0,0,0,0,0,0,0,0,0,0,0,0,0,0,0,0,0,0,0,0,0,0,0,0,0,0,0,0,0,0,0,0,0,0,0,0,0],"id":1,"left_children":[1,3,5,7,9,11,13,15,17,19,21,23,25,27,29,31,33,35,37,39,41,43,45,47,49,51,-1,53,55,57,59,-1,-1,-1,-1,-1,-1,-1,-1,-1,-1,-1,-1,-1,-1,-1,-1,-1,-1,-1,-1,-1,-1,-1,-1,-1,-1,-1,-1,-1,-1],"loss_changes":[1.6142281E5,3.0261336E4,5.216703E4,1.1341297E4,1.0460266E4,2.8492166E4,2.928014E4,1.5149297E3,8.649656E3,3.8680322E3,1.4045562E3,1.4626113E4,3.717578E2,1.8891516E4,5.9305054E3,1.00578625E3,1.0813281E3,5.747025E3,1.0685273E3,2.5456006E3,1.5962412E3,6.2398975E2,1.7159402E3,4.5820435E3,7.0055254E3,2.6283594E2,0E0,3.9802837E3,1.3015516E4,5.641446E3,1.8708445E3,0E0,0E0,0E0,0E0,0E0,0E0,0E0,0E0,0E0,0E0,0E0,0E0,0E0,0E0,0E0,0E0,0E0,0E0,0E0,0E0,0E0,0E0,0E0,0E0,0E0,0E0,0E0,0E0,0E0,0E0],"parents":[2147483647,0,0,1,1,2,2,3,3,4,4,5,5,6,6,7,7,8,8,9,9,10,10,11,11,12,12,13,13,14,14,15,15,16,16,17,17,18,18,19,19,20,20,21,21,22,22,23,23,24,24,25,25,27,27,28,28,29,29,30,30],"right_children":[2,4,6,8,10,12,14,16,18,20,22,24,26,28,30,32,34,36,38,40,42,44,46,48,50,52,-1,54,56,58,60,-1,-1,-1,-1,-1,-1,-1,-1,-1,-1,-1,-1,-1,-1,-1,-1,-1,-1,-1,-1,-1,-1,-1,-1,-1,-1,-1,-1,-1,-1],"split_conditions":[6E0,9.7E1,9.99E2,9.99E2,1.3E1,4.3E1,2E0,2.5E-1,2.0727272E1,9.4E1,8E0,9.99E2,1.8525E2,8.8E1,3.8E1,6.95E1,1.39E2,3.772E1,3.783E1,7.5E1,1.6513762E1,2.2E1,2.1E1,3.789E1,4.4E1,5.9E1,-5E-2,1.625E1,2.25E1,1.1E2,3.3E1,3.4649536E-2,-3.55105E-2,5E-2,1.7982287E-2,3.1552303E-3,3.4087215E-2,3.717527E-2,5E-2,-1.2198453E-3,-4.173982E-2,4.167525E-2,-5E-2,5E-2,-2.8844392E-2,-3.3453808E-3,3.4790754E-2,1.0016984E-2,5E-2,-3.900215E-2,5.288705E-3,5E-2,-5E-2,-1.5946334E-2,2.6560321E-2,-5E-2,1.671293E-2,2.7052075E-2,-1.7031385E-2,-2.862835E-2,3.2394245E-2],"split_indices":[72,21,116,18,79,116,231,71,190,95,116,1,213,218,246,35,114,244,244,91,8,81,189,246,72,21,0,195,58,209,12,0,0,0,0,0,0,0,0,0,0,0,0,0,0,0,0,0,0,0,0,0,0,0,0,0,0,0,0,0,0],"split_type":[0,0,0,0,0,0,0,0,0,0,0,0,0,0,0,0,0,0,0,0,0,0,0,0,0,0,0,0,0,0,0,0,0,0,0,0,0,0,0,0,0,0,0,0,0,0,0,0,0,0,0,0,0,0,0,0,0,0,0,0,0],"sum_hessian":[6.051044E5,2.3079447E5,3.743099E5,1.8925677E5,4.15377E4,9.824197E4,2.7606794E5,9.5272555E4,9.398422E4,2.5542629E4,1.5995069E4,7.680505E4,2.1436922E4,2.0571338E5,7.035457E4,2.1750452E3,9.309751E4,6.0280066E4,3.370415E4,2.230209E4,3.2405386E3,4.0789678E3,1.1916102E4,3.675008E4,4.005497E4,2.139145E4,4.5471893E1,3.6986098E4,1.6872728E5,5.6573684E4,1.3780887E4,1.3572958E3,8.177493E2,9.045902E4,2.638487E3,3.1939607E4,2.834046E4,1.6348807E4,1.7355342E4,4.9946377E3,1.7307451E4,2.6895735E3,5.509652E2,3.828622E3,2.5034573E2,5.363365E3,6.552737E3,2.851176E4,8.238319E3,2.6623008E4,1.3431959E4,2.1358465E4,3.2984917E1,3.025414E4,6.7319585E3,1.6121017E5,7.5171157E3,8.548344E3,4.802534E4,1.3970045E3,1.2383883E4],"tree_param":{"num_deleted":"0","num_feature":"272","num_nodes":"61","size_leaf_vector":"1"}},{"base_weights":[3.7567152E-3,-3.9291272E-1,1E0,2.6437855E-1,-7.10889E-1,5.212244E-1,1E0,9.640678E-2,6.648172E-1,-9.009055E-1,-2.1082462E-1,9.6916693E-1,-1.6760254E-2,1E0,-1E0,5.131033E-1,-1.10757634E-1,1E0,5.105007E-1,-2.2664842E-1,-1E0,-4.1618988E-1,2.8977603E-1,1E0,5.6094694E-1,-2.084001E-1,9.6312046E-1,1E0,-5E-2,-5E-2,5E-2,1.748128E-2,3.6532313E-2,-1.1575193E-2,2.2739312E-2,-5E-2,5E-2,1.8784923E-2,4.6209622E-2,-1.6418124E-2,2.2090368E-2,-5E-2,5.2284007E-3,-2.8276695E-2,1.3241531E-2,4.3960465E-3,3.595602E-2,-5E-2,5E-2,-5E-2,3.6735788E-2,3.738321E-2,-1.975801E-2,-5E-2,5E-2,5E-2,-2.9961332E-3],"categories":[],"categories_nodes":[],"categories_segments":[],"categories_sizes":[],"default_left":[0,0,0,0,0,0,0,0,0,0,0,0,0,0,0,0,0,0,0,0,0,0,0,0,0,0,0,0,0,0,0,0,0,0,0,0,0,0,0,0,0,0,0,0,0,0,0,0,0,0,0,0,0,0,0,0,0],"id":2,"left_children":[1,3,5,7,9,11,13,15,17,19,21,23,25,27,29,31,33,35,37,39,41,43,45,47,49,51,53,55,-1,-1,-1,-1,-1,-1,-1,-1,-1,-1,-1,-1,-1,-1,-1,-1,-1,-1,-1,-1,-1,-1,-1,-1,-1,-1,-1,-1,-1],"loss_changes":[3.0587512E5,9.7418016E4,3.0810781E3,1.0221825E4,2.984936E4,3.2402307E3,5.57375E2,9.2422E3,2.9178574E3,1.759589E4,8.89288E3,3.207998E2,1.1475299E3,2.3295312E2,2.0354373E2,1.2641045E3,4.883419E3,3.9552734E2,1.853248E3,2.2547568E3,1.2693672E4,6.2386016E3,2.1807434E3,2.329414E2,6.557149E2,9.129225E2,2.4079883E2,2.1067188E2,0E0,0E0,0E0,0E0,0E0,0E0,0E0,0E0,0E0,0E0,0E0,0E0,0E0,0E0,0E0,0E0,0E0,0E0,0E0,0E0,0E0,0E0,0E0,0E0,0E0,0E0,0E0,0E0,0E0],"parents":[2147483647,0,0,1,1,2,2,3,3,4,4,5,5,6,6,7,7,8,8,9,9,10,10,11,11,12,12,13,13,14,14,15,15,16,16,17,17,18,18,19,19,20,20,21,21,22,22,23,23,24,24,25,25,26,26,27,27],"right_children":[2,4,6,8,10,12,14,16,18,20,22,24,26,28,30,32,34,36,38,40,42,44,46,48,50,52,54,56,-1,-1,-1,-1,-1,-1,-1,-1,-1,-1,-1,-1,-1,-1,-1,-1,-1,-1,-1,-1,-1,-1,-1,-1,-1,-1,-1,-1,-1],"split_conditions":[5.2E1,5E0,5.7E1,2.0791666E1,2E0,1.8E1,7.3E1,5.1E1,8.7E1,1.1E2,1.825E1,7.3E1,3.8E1,5.95E1,3.7933334E1,1.73E2,3.772E1,5.05E1,3.783E1,3.728E1,1.25E1,3.811E1,1.0107527E0,6.9E1,-2E-1,1.14E2,5.0990195E0,9.99E2,-5E-2,-5E-2,5E-2,1.748128E-2,3.6532313E-2,-1.1575193E-2,2.2739312E-2,-5E-2,5E-2,1.8784923E-2,4.6209622E-2,-1.6418124E-2,2.2090368E-2,-5E-2,5.2284007E-3,-2.8276695E-2,1.3241531E-2,4.3960465E-3,3.595602E-2,-5E-2,5E-2,-5E-2,3.6735788E-2,3.738321E-2,-1.975801E-2,-5E-2,5E-2,5E-2,-2.9961332E-3],"split_indices":[112,72,112,190,231,72,110,1,219,209,195,3,246,55,248,178,253,159,249,246,62,246,241,87,261,209,132,139,0,0,0,0,0,0,0,0,0,0,0,0,0,0,0,0,0,0,0,0,0,0,0,0,0,0,0,0,0],"split_type":[0,0,0,0,0,0,0,0,0,0,0,0,0,0,0,0,0,0,0,0,0,0,0,0,0,0,0,0,0,0,0,0,0,0,0,0,0,0,0,0,0,0,0,0,0,0,0,0,0,0,0,0,0,0,0,0,0],"sum_hessian":[6.0298906E5,4.661063E5,1.3688273E5,1.5196938E5,3.141369E5,1.34446455E4,1.2343809E5,1.0706156E5,4.4907812E4,2.276375E5,8.649942E4,7.3358174E3,6.1088286E3,1.2331209E5,1.25999855E2,3.5551254E4,7.151031E4,1.1670362E4,3.323745E4,3.3159277E4,1.9447822E5,6.1336887E4,2.5162533E4,5.631272E3,1.7045453E3,5.110192E3,9.9863684E2,1.232826E5,2.9492138E1,9.8827385E1,2.7172466E1,2.0299404E4,1.5251853E4,5.892924E4,1.2581072E4,6.513658E1,1.1605226E4,2.5070184E4,8.167265E3,2.878047E4,4.3788057E3,1.8407434E5,1.0403889E4,5.0305367E4,1.1031519E4,1.7116473E4,8.046059E3,2.8731014E1,5.602541E3,1.0634667E2,1.5981986E3,8.3461554E2,4.275576E3,3.022102E1,9.684158E2,1.2309519E5,1.8741869E2],"tree_param":{"num_deleted":"0","num_feature":"272","num_nodes":"57","size_leaf_vector":"1"}},{"base_weights":[8.037602E-3,-3.8197362E-1,1E0,2.42768E-1,-6.832933E-1,4.5260274E-1,1E0,3.411993E-2,5.51952E-1,-8.649726E-1,-2.0573322E-1,8.7161916E-1,-1.1339107E-1,1E0,-1E0,4.558649E-1,-1.572172E-1,9.423468E-1,3.8458058E-1,-2.1218517E-1,-9.7703063E-1,5.7257015E-1,-3.3928263E-1,-5.0789535E-1,9.1736853E-1,-7.4978256E-1,1.6274448E-1,1E0,-5E-2,-5E-2,5E-2,2.623919E-2,-1.771397E-2,1.5208081E-3,-2.4970392E-2,-4.6740184E-3,4.8918214E-2,1.298019E-2,3.911529E-2,-1.4017169E-2,3.3399403E-2,-5E-2,9.721006E-3,1.398844E-2,4.3862168E-2,-2.4747327E-2,1.3680749E-2,-5E-2,2.963529E-2,-5E-2,4.68287E-2,4.6476714E-2,-5E-2,-1.0097722E-2,2.9823264E-2,5E-2,1.4575783E-3],"categories":[],"categories_nodes":[],"categories_segments":[],"categories_sizes":[],"default_left":[0,0,0,0,0,0,0,0,0,0,0,0,0,0,0,0,0,0,0,0,0,0,0,0,0,0,0,0,0,0,0,0,0,0,0,0,0,0,0,0,0,0,0,0,0,0,0,0,0,0,0,0,0,0,0,0,0],"id":3,"left_children":[1,3,5,7,9,11,13,15,17,19,21,23,25,27,29,31,33,35,37,39,41,43,45,47,49,51,53,55,-1,-1,-1,-1,-1,-1,-1,-1,-1,-1,-1,-1,-1,-1,-1,-1,-1,-1,-1,-1,-1,-1,-1,-1,-1,-1,-1,-1,-1],"loss_changes":[2.8932856E5,8.69535E4,4.960125E3,9.695687E3,2.7036469E4,3.9266873E3,5.2628125E2,7.241605E3,3.9565684E3,1.6512484E4,8.926654E3,6.008926E2,1.2379608E3,2.6185938E2,1.9811609E2,1.5639326E3,3.9636719E3,6.7802344E2,2.1067505E3,1.9843452E3,1.2527781E4,1.1218394E3,6.9935957E3,3.7551187E2,4.6194043E2,1.3327701E3,7.7728577E2,1.751875E2,0E0,0E0,0E0,0E0,0E0,0E0,0E0,0E0,0E0,0E0,0E0,0E0,0E0,0E0,0E0,0E0,0E0,0E0,0E0,0E0,0E0,0E0,0E0,0E0,0E0,0E0,0E0,0E0,0E0],"parents":[2147483647,0,0,1,1,2,2,3,3,4,4,5,5,6,6,7,7,8,8,9,9,10,10,11,11,12,12,13,13,14,14,15,15,16,16,17,17,18,18,19,19,20,20,21,21,22,22,23,23,24,24,25,25,26,26,27,27],"right_children":[2,4,6,8,10,12,14,16,18,20,22,24,26,28,30,32,34,36,38,40,42,44,46,48,50,52,54,56,-1,-1,-1,-1,-1,-1,-1,-1,-1,-1,-1,-1,-1,-1,-1,-1,-1,-1,-1,-1,-1,-1,-1,-1,-1,-1,-1,-1,-1],"split_conditions":[5.1E1,5E0,5.7E1,1.91E1,2E0,2.5E1,7.3E1,4.9E1,9E1,1.1E2,1.11E2,5.9E1,7.1E1,5.95E1,3.7933334E1,2.3E1,4.7871355E-2,3.3E-1,3.772E1,3.7386112E1,1.15E1,1.2352941E0,3.806E1,1.61E2,6.9E1,7.5E1,4.0414518E-1,1.8525E2,-5E-2,-5E-2,5E-2,2.623919E-2,-1.771397E-2,1.5208081E-3,-2.4970392E-2,-4.6740184E-3,4.8918214E-2,1.298019E-2,3.911529E-2,-1.4017169E-2,3.3399403E-2,-5E-2,9.721006E-3,1.398844E-2,4.3862168E-2,-2.4747327E-2,1.3680749E-2,-5E-2,2.963529E-2,-5E-2,4.68287E-2,4.6476714E-2,-5E-2,-1.0097722E-2,2.9823264E-2,5E-2,1.4575783E-3],"split_indices":[112,72,112,191,231,72,267,5,219,209,209,97,94,52,248,21,257,71,253,248,51,241,246,209,119,119,256,213,0,0,0,0,0,0,0,0,0,0,0,0,0,0,0,0,0,0,0,0,0,0,0,0,0,0,0,0,0],"split_type":[0,0,0,0,0,0,0,0,0,0,0,0,0,0,0,0,0,0,0,0,0,0,0,0,0,0,0,0,0,0,0,0,0,0,0,0,0,0,0,0,0,0,0,0,0,0,0,0,0,0,0,0,0,0,0,0,0],"sum_hessian":[6.0249694E5,4.6190997E5,1.4058695E5,1.5029525E5,3.1161472E5,1.6555656E4,1.240313E5,8.973802E4,6.0557223E4,2.2573645E5,8.587827E4,9.512687E3,7.04297E3,1.2390785E5,1.2344337E2,2.8005959E4,6.1732062E4,1.8170287E4,4.2386938E4,3.307324E4,1.9266322E5,1.2577198E4,7.330107E4,3.0502228E2,9.207664E3,2.1307212E3,4.9122485E3,1.2387414E5,3.371207E1,9.63453E1,2.7098066E1,2.5810605E4,2.195353E3,3.9870684E4,2.1861379E4,6.1052747E2,1.755976E4,3.2253578E4,1.0133357E4,3.0696838E4,2.376398E3,1.8381095E5,8.852257E3,6.414532E3,6.162666E3,5.845488E4,1.4846195E4,1.283827E2,1.7663957E2,5.83023E1,9.149361E3,3.9308923E2,1.737632E3,2.6687422E3,2.2435066E3,1.236882E5,1.8594046E2],"tree_param":{"num_deleted":"0","num_feature":"272","num_nodes":"57","size_leaf_vector":"1"}},{"base_weights":[9.023882E-3,-3.5539654E-1,1E0,2.4404632E-1,-6.469936E-1,5.2433574E-1,1E0,2.4703886E-2,5.0808346E-1,-7.828985E-1,-2.0358594E-2,9.0702707E-1,2.4340706E-2,1E0,-1E0,4.4441026E-1,-1.7141466E-1,8.510634E-1,3.2848984E-1,-8.8313603E-1,-9.5646314E-2,3.1149772E-1,-3.188902E-1,-4.5364058E-1,9.4441617E-1,-1.9260502E-1,7.6776415E-1,1E0,-5E-2,-5E-2,5E-2,1.5247017E-2,4.0296298E-2,-1.625532E-2,1.2140862E-2,5E-2,3.2925103E-2,1.0254184E-2,3.6262956E-2,-2.0907374E-2,-5E-2,-1.0917433E-2,4.376619E-2,8.717905E-3,4.2114552E-2,-2.350709E-2,2.3415143E-2,5E-2,-5E-2,5E-2,2.881893E-2,1.7606989E-2,-2.8125698E-2,-4.278462E-2,4.718018E-2,5E-2,-5.8068535E-3],"categories":[],"categories_nodes":[],"categories_segments":[],"categories_sizes":[],"default_left":[0,0,0,0,0,0,0,0,0,0,0,0,0,0,0,0,0,0,0,0,0,0,0,0,0,0,0,0,0,0,0,0,0,0,0,0,0,0,0,0,0,0,0,0,0,0,0,0,0,0,0,0,0,0,0,0,0],"id":4,"left_children":[1,3,5,7,9,11,13,15,17,19,21,23,25,27,29,31,33,35,37,39,41,43,45,47,49,51,53,55,-1,-1,-1,-1,-1,-1,-1,-1,-1,-1,-1,-1,-1,-1,-1,-1,-1,-1,-1,-1,-1,-1,-1,-1,-1,-1,-1,-1,-1],"loss_changes":[2.6897122E5,8.170649E4,2.3299219E3,8.859305E3,2.6780875E4,1.9712031E3,5.24375E2,6.87803E3,4.275418E3,1.7802156E4,5.5527017E3,2.9730664E2,7.2067694E2,2.3782812E2,1.9489099E2,1.3414956E3,3.625703E3,1.0499805E3,2.2306392E3,1.9098375E4,3.9192961E3,1.9319785E3,3.5132888E3,2.8801294E2,2.1956592E2,6.972266E2,2.889585E2,2.3396875E2,0E0,0E0,0E0,0E0,0E0,0E0,0E0,0E0,0E0,0E0,0E0,0E0,0E0,0E0,0E0,0E0,0E0,0E0,0E0,0E0,0E0,0E0,0E0,0E0,0E0,0E0,0E0,0E0,0E0],"parents":[2147483647,0,0,1,1,2,2,3,3,4,4,5,5,6,6,7,7,8,8,9,9,10,10,11,11,12,12,13,13,14,14,15,15,16,16,17,17,18,18,19,19,20,20,21,21,22,22,23,23,24,24,25,25,26,26,27,27],"right_children":[2,4,6,8,10,12,14,16,18,20,22,24,26,28,30,32,34,36,38,40,42,44,46,48,50,52,54,56,-1,-1,-1,-1,-1,-1,-1,-1,-1,-1,-1,-1,-1,-1,-1,-1,-1,-1,-1,-1,-1,-1,-1,-1,-1,-1,-1,-1,-1],"split_conditions":[5.3E1,5E0,5.7E1,1.85E1,9.375E-1,2.1E1,7.2E1,5.1E1,9.2E1,3.789E1,6.1E1,5.9E1,2.24E1,5.95E1,3.7877274E1,3.2E1,3.7353333E1,5.6E1,3.772E1,1E1,1.55E1,8.9E1,3.783E1,2E0,7.3E1,6.85E1,6.9E1,9.99E2,-5E-2,-5E-2,5E-2,1.5247017E-2,4.0296298E-2,-1.625532E-2,1.2140862E-2,5E-2,3.2925103E-2,1.0254184E-2,3.6262956E-2,-2.0907374E-2,-5E-2,-1.0917433E-2,4.376619E-2,8.717905E-3,4.2114552E-2,-2.350709E-2,2.3415143E-2,5E-2,-5E-2,5E-2,2.881893E-2,1.7606989E-2,-2.8125698E-2,-4.278462E-2,4.718018E-2,5E-2,-5.8068535E-3],"split_indices":[112,72,112,191,241,72,179,1,219,243,33,96,191,52,248,82,248,33,253,112,51,241,249,173,3,129,95,139,0,0,0,0,0,0,0,0,0,0,0,0,0,0,0,0,0,0,0,0,0,0,0,0,0,0,0,0,0],"split_type":[0,0,0,0,0,0,0,0,0,0,0,0,0,0,0,0,0,0,0,0,0,0,0,0,0,0,0,0,0,0,0,0,0,0,0,0,0,0,0,0,0,0,0,0,0,0,0,0,0,0,0,0,0,0,0,0,0],"sum_hessian":[6.005481E5,4.6743778E5,1.3311033E5,1.529713E5,3.1446647E5,1.0301013E4,1.2280932E5,8.3558336E4,6.941296E4,2.5842E5,5.6046484E4,5.834517E3,4.466496E3,1.2268485E5,1.2447131E2,2.6609984E4,5.6948355E4,2.385397E4,4.555899E4,2.2552612E5,3.289387E4,2.6541809E4,2.9504676E4,1.5573851E2,5.6787783E3,3.458096E3,1.0084001E3,1.22653445E5,3.1399487E1,9.772893E1,2.6742388E1,1.9203332E4,7.4066514E3,4.1537125E4,1.5411229E4,1.0305614E4,1.3548357E4,3.4751754E4,1.0807234E4,6.5511625E4,1.600145E5,2.92041E4,3.6897725E3,2.1093314E4,5.448493E3,2.474967E4,4.755008E3,7.8831696E1,7.6906815E1,4.3529023E3,1.3258762E3,1.3985603E3,2.0595356E3,9.816985E1,9.102302E2,1.2246583E5,1.8761719E2],"tree_param":{"num_deleted":"0","num_feature":"272","num_nodes":"57","size_leaf_vector":"1"}},{"base_weights":[1.4696195E-2,-3.3441523E-1,1E0,2.1823739E-1,-6.2001467E-1,5.6325907E-1,1E0,5.4564685E-1,4.676209E-2,-7.556565E-1,-2.4391865E-2,9.890744E-1,1.9031398E-1,1E0,-1E0,-9.673979E-2,6.0921E-1,-1.12847865E-1,5.0201964E-1,-2.4342099E-1,-8.821432E-1,6.253921E-1,-1.5047784E-1,1E0,-5E-2,-1.9089378E-1,8.791196E-1,1E0,-5E-2,-5E-2,5E-2,-3.2341387E-2,1.900519E-2,3.2911297E-2,-5.733232E-3,-1.50333615E-2,1.389392E-2,1.5136796E-2,4.0110078E-2,-2.2113444E-2,3.8877954E-3,-4.8572358E-2,-1.7584267E-3,1.8319234E-2,4.467468E-2,-1.5791848E-2,2.2314927E-2,-1.6588984E-2,5E-2,-5E-2,8.843314E-3,4.7690205E-2,-5E-2,5E-2,-1.1199985E-2],"categories":[],"categories_nodes":[],"categories_segments":[],"categories_sizes":[],"default_left":[0,0,0,0,0,0,0,0,0,0,0,0,0,0,0,0,0,0,0,0,0,0,0,0,0,0,0,0,0,0,0,0,0,0,0,0,0,0,0,0,0,0,0,0,0,0,0,0,0,0,0,0,0,0,0],"id":5,"left_children":[1,3,5,7,9,11,13,15,17,19,21,23,25,27,29,31,33,35,37,39,41,43,45,47,-1,49,51,53,-1,-1,-1,-1,-1,-1,-1,-1,-1,-1,-1,-1,-1,-1,-1,-1,-1,-1,-1,-1,-1,-1,-1,-1,-1,-1,-1],"loss_changes":[2.532183E5,7.399844E4,1.4164062E3,8.9678545E3,2.4972102E4,1.1799006E3,6.30625E2,2.241874E3,7.6175073E3,1.63115625E4,4.697443E3,2.0853394E2,1.0406807E3,2.540625E2,6.251866E1,1.2971664E3,1.7727188E3,5.696289E3,1.6276665E3,3.1842114E3,1.5271547E4,6.466897E2,4.738677E3,1.674978E2,0E0,8.2924316E2,2.2048474E2,2.5223438E2,0E0,0E0,0E0,0E0,0E0,0E0,0E0,0E0,0E0,0E0,0E0,0E0,0E0,0E0,0E0,0E0,0E0,0E0,0E0,0E0,0E0,0E0,0E0,0E0,0E0,0E0,0E0],"parents":[2147483647,0,0,1,1,2,2,3,3,4,4,5,5,6,6,7,7,8,8,9,9,10,10,11,11,12,12,13,13,14,14,15,15,16,16,17,17,18,18,19,19,20,20,21,21,22,22,23,23,25,25,26,26,27,27],"right_children":[2,4,6,8,10,12,14,16,18,20,22,24,26,28,30,32,34,36,38,40,42,44,46,48,-1,50,52,54,-1,-1,-1,-1,-1,-1,-1,-1,-1,-1,-1,-1,-1,-1,-1,-1,-1,-1,-1,-1,-1,-1,-1,-1,-1,-1,-1],"split_conditions":[5.4E1,6E0,5.7E1,5.3E1,2.1931818E1,7E0,7.3E1,3.6E-1,3.7E1,1.02E2,1.11E2,5.4E1,3.761E1,5.95E1,3.7877274E1,6.7E1,2.6E1,1.04E2,3.783E1,9.5327103E-1,3.794E1,9.4E1,3.7545E1,-2E0,-5E-2,1.7833334E1,2.3E1,1.8525E2,-5E-2,-5E-2,5E-2,-3.2341387E-2,1.900519E-2,3.2911297E-2,-5.733232E-3,-1.50333615E-2,1.389392E-2,1.5136796E-2,4.0110078E-2,-2.2113444E-2,3.8877954E-3,-4.8572358E-2,-1.7584267E-3,1.8319234E-2,4.467468E-2,-1.5791848E-2,2.2314927E-2,-1.6588984E-2,5E-2,-5E-2,8.843314E-3,4.7690205E-2,-5E-2,5E-2,-1.1199985E-2],"split_indices":[112,72,112,18,191,72,267,71,252,213,209,21,243,52,248,238,21,86,253,241,246,94,248,204,0,191,182,213,0,0,0,0,0,0,0,0,0,0,0,0,0,0,0,0,0,0,0,0,0,0,0,0,0,0,0],"split_type":[0,0,0,0,0,0,0,0,0,0,0,0,0,0,0,0,0,0,0,0,0,0,0,0,0,0,0,0,0,0,0,0,0,0,0,0,0,0,0,0,0,0,0,0,0,0,0,0,0,0,0,0,0,0,0],"sum_hessian":[5.9908156E5,4.6882566E5,1.3025589E5,1.5973288E5,3.0909278E5,7.4300205E3,1.22825875E5,5.4902195E4,1.0483068E5,2.5175914E5,5.7333633E4,3.4683406E3,3.9616797E3,1.227205E5,1.0537215E2,4.9433057E3,4.9958887E4,7.7618836E4,2.7211842E4,4.9856664E4,2.0190248E5,9.316598E3,4.8017035E4,3.4426228E3,2.5717842E1,2.5507393E3,1.4109404E3,1.2268622E5,3.4283752E1,9.650448E1,8.867671E0,2.2952004E3,2.6481052E3,4.6790637E4,3.1682522E3,5.242077E4,2.5198064E4,1.6355692E4,1.0856149E4,3.0792162E4,1.9064502E4,1.8264453E5,1.925795E4,4.7398716E3,4.5767266E3,3.759924E4,1.0417799E4,9.400115E1,3.3486216E3,7.4616455E2,1.8045747E3,1.3630808E3,4.785969E1,1.2251818E5,1.6803731E2],"tree_param":{"num_deleted":"0","num_feature":"272","num_nodes":"55","size_leaf_vector":"1"}},{"base_weights":[1.5907563E-2,-3.2438615E-1,1E0,2.1820578E-1,-5.880553E-1,4.4388196E-1,1E0,8.746388E-2,5.995026E-1,-7.015826E-1,9.571473E-2,4.389022E-2,8.594104E-1,1E0,-5.830247E-1,4.339098E-1,-8.662246E-2,1E0,4.81775E-1,-7.8469914E-1,7.1151294E-2,-1.3524254E-1,4.3181807E-1,-1.839322E-1,9.840794E-1,8.8989776E-1,-5E-2,1E0,-2.982776E-1,-1E0,1E0,2.3287019E-2,-3.3842266E-2,6.1529577E-3,-1.7892685E-2,5E-2,-5E-2,3.211584E-2,9.848427E-3,-6.1703934E-3,-4.43484E-2,-2.7282794E-3,4.815503E-2,1.788446E-2,-1.4472677E-2,9.214528E-3,3.434217E-2,1.6510712E-2,-2.636003E-2,-3.0636877E-2,5E-2,5E-2,2.2878788E-2,5E-2,-5E-2,-5E-2,5E-2,-5E-2,5E-2,-5E-2,5E-2],"categories":[],"categories_nodes":[],"categories_segments":[],"categories_sizes":[],"default_left":[0,0,0,0,0,0,0,0,0,0,0,0,0,0,0,0,0,0,0,0,0,0,0,0,0,0,0,0,0,0,0,0,0,0,0,0,0,0,0,0,0,0,0,0,0,0,0,0,0,0,0,0,0,0,0,0,0,0,0,0,0],"id":6,"left_children":[1,3,5,7,9,11,13,15,17,19,21,23,25,27,29,31,33,35,37,39,41,43,45,47,49,51,-1,53,55,57,59,-1,-1,-1,-1,-1,-1,-1,-1,-1,-1,-1,-1,-1,-1,-1,-1,-1,-1,-1,-1,-1,-1,-1,-1,-1,-1,-1,-1,-1,-1],"loss_changes":[2.3318188E5,6.616326E4,4.0795625E3,7.539524E3,2.415975E4,2.1929756E3,6.3775E2,6.7926064E3,2.1169756E3,1.7143156E4,3.4401858E3,1.4404229E3,4.951958E2,2.64875E2,4.7462878E2,1.332043E3,4.2631543E3,6.170127E2,1.4150508E3,1.6298094E4,2.9068176E3,1.9968737E3,1.1392959E3,9.555625E2,2.4806116E2,3.3918896E2,0E0,1.9967188E2,2.9713388E2,6.81066E1,4.7371338E1,0E0,0E0,0E0,0E0,0E0,0E0,0E0,0E0,0E0,0E0,0E0,0E0,0E0,0E0,0E0,0E0,0E0,0E0,0E0,0E0,0E0,0E0,0E0,0E0,0E0,0E0,0E0,0E0,0E0,0E0],"parents":[2147483647,0,0,1,1,2,2,3,3,4,4,5,5,6,6,7,7,8,8,9,9,10,10,11,11,12,12,13,13,14,14,15,15,16,16,17,17,18,18,19,19,20,20,21,21,22,22,23,23,24,24,25,25,27,27,28,28,29,29,30,30],"right_children":[2,4,6,8,10,12,14,16,18,20,22,24,26,28,30,32,34,36,38,40,42,44,46,48,50,52,-1,54,56,58,60,-1,-1,-1,-1,-1,-1,-1,-1,-1,-1,-1,-1,-1,-1,-1,-1,-1,-1,-1,-1,-1,-1,-1,-1,-1,-1,-1,-1,-1,-1],"split_conditions":[5.2E1,5E0,5.7E1,2.15E1,1.95E1,2.9E-1,9.99E2,5.1E1,8.5E1,3.794E1,5E0,3.794E1,5.4E1,1.8525E2,1.21E2,1.41E2,3.53E1,6.55E0,3.5E1,9.57E1,1.55E1,1.205E2,2.6708334E1,9.1E1,3.45E1,7.3E1,-5E-2,7.3E1,9.99E2,5.1E-1,2E0,2.3287019E-2,-3.3842266E-2,6.1529577E-3,-1.7892685E-2,5E-2,-5E-2,3.211584E-2,9.848427E-3,-6.1703934E-3,-4.43484E-2,-2.7282794E-3,4.815503E-2,1.788446E-2,-1.4472677E-2,9.214528E-3,3.434217E-2,1.6510712E-2,-2.636003E-2,-3.0636877E-2,5E-2,5E-2,2.2878788E-2,5E-2,-5E-2,-5E-2,5E-2,-5E-2,5E-2,-5E-2,5E-2],"split_indices":[112,72,112,190,194,71,139,1,218,246,147,246,21,213,86,114,242,175,116,213,51,209,190,217,43,3,0,110,264,71,29,0,0,0,0,0,0,0,0,0,0,0,0,0,0,0,0,0,0,0,0,0,0,0,0,0,0,0,0,0,0],"split_type":[0,0,0,0,0,0,0,0,0,0,0,0,0,0,0,0,0,0,0,0,0,0,0,0,0,0,0,0,0,0,0,0,0,0,0,0,0,0,0,0,0,0,0,0,0,0,0,0,0,0,0,0,0,0,0,0,0,0,0,0,0],"sum_hessian":[5.968245E5,4.6246875E5,1.3435577E5,1.5123981E5,3.1122894E5,1.3193397E4,1.2116237E5,1.12623766E5,3.8616047E4,2.6691297E5,4.431597E4,6.722937E3,6.47046E3,1.20908484E5,2.538839E2,3.7665293E4,7.495848E4,7.666172E3,3.0949875E4,2.409915E5,2.5921459E4,2.6266938E4,1.8049031E4,5.4122656E3,1.3106715E3,6.4022754E3,6.8184364E1,1.20751734E5,1.5675291E2,1.6395248E2,8.993142E1,3.6616566E4,1.048728E3,4.2276324E4,3.2682152E4,7.550367E3,1.1580468E2,1.9792078E4,1.1157797E4,3.2277947E4,2.0871355E5,2.2720086E4,3.2013716E3,6.2589707E3,2.0007967E4,9.160029E3,8.889001E3,2.1668306E3,3.245435E3,9.4886635E1,1.2157849E3,4.9832266E3,1.4190491E3,1.2072347E5,2.826552E1,8.344713E1,7.330578E1,1.5497583E2,8.976654E0,6.4164095E0,8.3515015E1],"tree_param":{"num_deleted":"0","num_feature":"272","num_nodes":"61","size_leaf_vector":"1"}},{"base_weights":[2.180741E-2,5.0930834E-1,-3.358079E-1,3.807905E-1,1E0,-5.448108E-1,1.3968973E-1,6.1516213E-1,-4.0529026E-3,1E0,-5E-2,-6.3585544E-1,1.6413786E-2,4.9679536E-2,7.812712E-1,8.5903996E-1,3.7257987E-1,3.8478047E-1,-3.5951644E-1,1E0,-5E-2,-8.443219E-3,-7.1929395E-1,1.7613918E-1,-5.1944137E-1,-4.9470782E-2,6.240416E-1,1E0,5.424273E-1,4.4506423E-2,-3.542623E-3,3.0050555E-3,3.1747527E-2,1.1076906E-2,4.9808327E-2,2.1235494E-2,-2.7129427E-2,5E-2,-5E-2,-1.1521233E-2,2.6845226E-2,-3.8001936E-2,1.5557687E-2,-2.4503206E-3,2.3655713E-2,1.5531944E-2,-4.4310354E-2,-1.6908899E-2,8.162331E-3,3.6685094E-3,3.875426E-2,5E-2,-5E-2,1.6035551E-2,4.4186275E-2],"categories":[],"categories_nodes":[],"categories_segments":[],"categories_sizes":[],"default_left":[0,0,0,0,0,0,0,0,0,0,0,0,0,0,0,0,0,0,0,0,0,0,0,0,0,0,0,0,0,0,0,0,0,0,0,0,0,0,0,0,0,0,0,0,0,0,0,0,0,0,0,0,0,0,0],"id":7,"left_children":[1,3,5,7,9,11,13,15,17,19,-1,21,23,25,27,29,31,33,35,37,-1,39,41,43,45,47,49,51,53,-1,-1,-1,-1,-1,-1,-1,-1,-1,-1,-1,-1,-1,-1,-1,-1,-1,-1,-1,-1,-1,-1,-1,-1,-1,-1],"loss_changes":[1.0382564E5,1.994496E4,3.4140812E4,1.8966066E4,4.3789453E2,1.2193766E4,6.0575166E3,7.7311523E3,1.1000722E4,2.519375E2,0E0,1.0749211E4,2.8511672E3,5.2387114E3,8.1643604E2,1.8840156E3,5.3715537E3,3.7934521E3,5.969806E3,2.2234375E2,0E0,2.9179106E3,7.60925E3,1.7158896E3,2.3291016E3,4.8178457E3,1.1263296E3,2.5675732E2,5.1830457E2,0E0,0E0,0E0,0E0,0E0,0E0,0E0,0E0,0E0,0E0,0E0,0E0,0E0,0E0,0E0,0E0,0E0,0E0,0E0,0E0,0E0,0E0,0E0,0E0,0E0,0E0],"parents":[2147483647,0,0,1,1,2,2,3,3,4,4,5,5,6,6,7,7,8,8,9,9,11,11,12,12,13,13,14,14,15,15,16,16,17,17,18,18,19,19,21,21,22,22,23,23,24,24,25,25,26,26,27,27,28,28],"right_children":[2,4,6,8,10,12,14,16,18,20,-1,22,24,26,28,30,32,34,36,38,-1,40,42,44,46,48,50,52,54,-1,-1,-1,-1,-1,-1,-1,-1,-1,-1,-1,-1,-1,-1,-1,-1,-1,-1,-1,-1,-1,-1,-1,-1,-1,-1],"split_conditions":[9.99E2,4.2E1,4E0,5E0,9.7E1,3.767E1,1.2352941E0,9.99E2,9.99E2,5E1,-5E-2,9.7E1,7.6E1,3.783E1,9E1,6.6E1,3.639E1,1.15E1,5E0,1.05E2,-5E-2,8.07E1,2.2E1,8.729522E0,5.1E1,1.45E1,3.9E1,5.6125E1,1.9272482E0,4.4506423E-2,-3.542623E-3,3.0050555E-3,3.1747527E-2,1.1076906E-2,4.9808327E-2,2.1235494E-2,-2.7129427E-2,5E-2,-5E-2,-1.1521233E-2,2.6845226E-2,-3.8001936E-2,1.5557687E-2,-2.4503206E-3,2.3655713E-2,1.5531944E-2,-4.4310354E-2,-1.6908899E-2,8.162331E-3,3.6685094E-3,3.875426E-2,5E-2,-5E-2,1.6035551E-2,4.4186275E-2],"split_indices":[116,116,147,72,21,246,241,18,1,110,0,211,21,253,209,21,252,54,116,128,0,91,62,131,33,195,239,39,165,0,0,0,0,0,0,0,0,0,0,0,0,0,0,0,0,0,0,0,0,0,0,0,0,0,0],"split_type":[0,0,0,0,0,0,0,0,0,0,0,0,0,0,0,0,0,0,0,0,0,0,0,0,0,0,0,0,0,0,0,0,0,0,0,0,0,0,0,0,0,0,0,0,0,0,0,0,0,0,0,0,0,0,0],"sum_hessian":[5.9554094E5,2.5200605E5,3.435349E5,2.1027422E5,4.1731832E4,2.3864111E5,1.0489378E5,1.30685484E5,7.958874E4,4.167735E4,5.447842E1,2.0533112E5,3.330998E4,9.19893E4,1.2904492E4,6.516745E4,6.551803E4,3.8010188E4,4.1578555E4,4.164827E4,2.908056E1,2.4101574E4,1.8122955E5,2.5661562E4,7.6484165E3,7.844798E4,1.3541313E4,6.052335E3,6.852157E3,6.3059273E4,2.1081758E3,2.9904059E4,3.5613977E4,3.0001135E4,8.009053E3,7.86896E3,3.3709594E4,4.1624418E4,2.3852547E1,1.7129615E4,6.9719585E3,1.743364E5,6.8931406E3,1.459642E4,1.1065143E4,2.3438545E3,5.304562E3,3.327943E4,4.5168547E4,2.915075E3,1.0626238E4,6.021489E3,3.0846138E1,4.1549385E3,2.6972185E3],"tree_param":{"num_deleted":"0","num_feature":"272","num_nodes":"55","size_leaf_vector":"1"}},{"base_weights":[1.2640695E-2,-3.027962E-1,1E0,1.7680617E-1,-5.5242634E-1,5.778454E-1,1E0,7.102473E-2,6.018589E-1,-6.560363E-1,1.1098727E-1,8.4524035E-1,1.687205E-1,1E0,-1E0,3.766963E-1,-8.3458856E-2,1E0,4.3833205E-1,-7.3297364E-1,4.9316153E-2,-1.4204935E-3,7.298357E-1,6.785105E-1,1E0,7.544968E-1,-1.8646811E-1,1E0,-6.5828466E-1,-5E-2,5E-2,-1.0322855E-2,2.1872183E-2,-1.1751063E-2,1.7513292E-2,5E-2,-1.8976551E-3,-2.3400431E-2,2.496139E-2,-1.3905585E-2,-4.294033E-2,-2.8750557E-3,3.9151262E-2,2.3696736E-2,-8.487304E-3,3.8924735E-2,-2.6818914E-2,-3.6963344E-2,3.6962535E-2,-5E-2,5E-2,4.757305E-2,-4.8811557E-3,-3.6137193E-2,1.7276749E-2,5E-2,-5.493565E-3,-5E-2,5E-2],"categories":[],"categories_nodes":[],"categories_segments":[],"categories_sizes":[],"default_left":[0,0,0,0,0,0,0,0,0,0,0,0,0,0,0,0,0,0,0,0,0,0,0,0,0,0,0,0,0,0,0,0,0,0,0,0,0,0,0,0,0,0,0,0,0,0,0,0,0,0,0,0,0,0,0,0,0,0,0],"id":8,"left_children":[1,3,5,7,9,11,13,15,17,19,21,23,25,27,29,31,33,35,37,39,41,43,45,47,49,51,53,55,57,-1,-1,-1,-1,-1,-1,-1,-1,-1,-1,-1,-1,-1,-1,-1,-1,-1,-1,-1,-1,-1,-1,-1,-1,-1,-1,-1,-1,-1,-1],"loss_changes":[2.1159736E5,5.555872E4,2.0191406E3,7.142592E3,2.0978578E4,1.2399385E3,4.0067188E2,6.0066694E3,2.2442588E3,1.4325484E4,2.8679502E3,3.142754E2,9.3259125E2,2.5879688E2,1.1441313E2,1.5128984E3,5.5547056E3,3.5913086E2,1.2709526E3,1.3622898E4,2.0348126E3,2.7918936E3,3.9088696E2,4.0002808E2,1.193042E2,2.8405432E2,7.964467E2,2.1573438E2,2.0185553E2,0E0,0E0,0E0,0E0,0E0,0E0,0E0,0E0,0E0,0E0,0E0,0E0,0E0,0E0,0E0,0E0,0E0,0E0,0E0,0E0,0E0,0E0,0E0,0E0,0E0,0E0,0E0,0E0,0E0,0E0],"parents":[2147483647,0,0,1,1,2,2,3,3,4,4,5,5,6,6,7,7,8,8,9,9,10,10,11,11,12,12,13,13,14,14,15,15,16,16,17,17,18,18,19,19,20,20,21,21,22,22,23,23,24,24,25,25,26,26,27,27,28,28],"right_children":[2,4,6,8,10,12,14,16,18,20,22,24,26,28,30,32,34,36,38,40,42,44,46,48,50,52,54,56,58,-1,-1,-1,-1,-1,-1,-1,-1,-1,-1,-1,-1,-1,-1,-1,-1,-1,-1,-1,-1,-1,-1,-1,-1,-1,-1,-1,-1,-1,-1],"split_conditions":[5.4E1,6E0,5.9E1,9.7727275E-1,1.9E1,2.7E1,7.2E1,5.4E1,2.9860787E0,3.794E1,3.789E1,3.765E1,1.14E2,5.75E1,3.7877274E1,3.6E-1,3.745714E1,4.9E1,3.6E-1,1.03E2,1.6E1,1.0275E2,3.72E1,5.9E1,2.9217393E0,4.425306E0,7.8571427E-1,1.8525E2,3.2857144E-1,-5E-2,5E-2,-1.0322855E-2,2.1872183E-2,-1.1751063E-2,1.7513292E-2,5E-2,-1.8976551E-3,-2.3400431E-2,2.496139E-2,-1.3905585E-2,-4.294033E-2,-2.8750557E-3,3.9151262E-2,2.3696736E-2,-8.487304E-3,3.8924735E-2,-2.6818914E-2,-3.6963344E-2,3.6962535E-2,-5E-2,5E-2,4.757305E-2,-4.8811557E-3,-3.6137193E-2,1.7276749E-2,5E-2,-5.493565E-3,-5E-2,5E-2],"split_indices":[112,72,112,241,195,72,179,5,221,246,246,250,210,53,248,71,248,7,71,213,62,212,106,94,99,100,104,213,261,0,0,0,0,0,0,0,0,0,0,0,0,0,0,0,0,0,0,0,0,0,0,0,0,0,0,0,0,0,0],"split_type":[0,0,0,0,0,0,0,0,0,0,0,0,0,0,0,0,0,0,0,0,0,0,0,0,0,0,0,0,0,0,0,0,0,0,0,0,0,0,0,0,0,0,0,0,0,0,0,0,0,0,0,0,0,0,0,0,0,0,0],"sum_hessian":[5.9088156E5,4.6405794E5,1.26823625E5,1.5885594E5,3.05202E5,1.1334513E4,1.1548912E5,1.2720102E5,3.1654918E4,2.6397516E5,4.1226863E4,6.8538936E3,4.4806196E3,1.1539627E5,9.2842834E1,4.2703527E4,8.449749E4,8.632438E3,2.3022479E4,2.3801347E5,2.5961678E4,3.4890367E4,6.336496E3,4.6378755E3,2.216018E3,1.6908873E3,2.7897322E3,1.153028E5,9.3475105E1,7.5210815E1,1.7632013E1,4.028543E3,3.8674984E4,6.2616875E4,2.1880621E4,8.299162E3,3.3327634E2,1.4490399E3,2.157344E4,5.157673E4,1.8643673E5,2.2663174E4,3.2985034E3,9.123522E3,2.5766846E4,6.102375E3,2.34121E2,1.9007358E2,4.4478022E3,1.2651935E1,2.203366E3,1.3733308E3,3.1755658E2,1.3891086E3,1.4006235E3,1.1512784E5,1.7495386E2,5.525038E1,3.8224728E1],"tree_param":{"num_deleted":"0","num_feature":"272","num_nodes":"59","size_leaf_vector":"1"}},{"base_weights":[1.7666522E-2,-2.912551E-1,1E0,1.580209E-1,-5.376644E-1,5.1536906E-1,1E0,4.543509E-1,3.2716743E-3,-1.4926371E-1,-7.05183E-1,8.078068E-1,6.0503494E-2,1E0,-8.3286434E-1,-1.1872757E-1,5.1459503E-1,-1.4021315E-1,4.2195794E-1,-2.4764805E-1,7.665642E-1,-8.2261175E-1,-1.6412016E-2,6.409832E-1,1E0,1E0,-1.3054E-1,1E0,-5E-2,-5E-2,5E-2,1.999356E-2,-3.4479037E-2,1.0354604E-2,3.147162E-2,-1.5915832E-2,1.1327884E-2,1.3083364E-2,3.5952475E-2,-2.3331054E-2,4.756092E-3,1.6720558E-2,5E-2,-1.7386865E-2,-4.710146E-2,-5.7904315E-3,4.294305E-2,3.865671E-2,-5.513814E-3,5E-2,-5E-2,5E-2,-5E-2,-2.1732919E-2,2.167251E-2,5E-2,-5E-2],"categories":[],"categories_nodes":[],"categories_segments":[],"categories_sizes":[],"default_left":[0,0,0,0,0,0,0,0,0,0,0,0,0,0,0,0,0,0,0,0,0,0,0,0,0,0,0,0,0,0,0,0,0,0,0,0,0,0,0,0,0,0,0,0,0,0,0,0,0,0,0,0,0,0,0,0,0],"id":9,"left_children":[1,3,5,7,9,11,13,15,17,19,21,23,25,27,29,31,33,35,37,39,41,43,45,47,49,51,53,55,-1,-1,-1,-1,-1,-1,-1,-1,-1,-1,-1,-1,-1,-1,-1,-1,-1,-1,-1,-1,-1,-1,-1,-1,-1,-1,-1,-1,-1],"loss_changes":[1.9818722E5,5.09196E4,3.3405E3,7.470752E3,1.9326617E4,1.8924294E3,3.4903125E2,1.9296504E3,6.429628E3,8.0653306E3,1.6785375E4,4.343994E2,1.077029E3,2.4129688E2,1.6756001E2,1.5744337E3,1.7857803E3,5.206965E3,1.3006621E3,6.066772E3,9.7103906E2,1.005418E4,2.630026E3,5.8182983E2,1.3646362E2,2.4037103E2,8.0443744E2,1.7707812E2,0E0,0E0,0E0,0E0,0E0,0E0,0E0,0E0,0E0,0E0,0E0,0E0,0E0,0E0,0E0,0E0,0E0,0E0,0E0,0E0,0E0,0E0,0E0,0E0,0E0,0E0,0E0,0E0,0E0],"parents":[2147483647,0,0,1,1,2,2,3,3,4,4,5,5,6,6,7,7,8,8,9,9,10,10,11,11,12,12,13,13,14,14,15,15,16,16,17,17,18,18,19,19,20,20,21,21,22,22,23,23,24,24,25,25,26,26,27,27],"right_children":[2,4,6,8,10,12,14,16,18,20,22,24,26,28,30,32,34,36,38,40,42,44,46,48,50,52,54,56,-1,-1,-1,-1,-1,-1,-1,-1,-1,-1,-1,-1,-1,-1,-1,-1,-1,-1,-1,-1,-1,-1,-1,-1,-1,-1,-1,-1,-1],"split_conditions":[5.3E1,7E0,5.9E1,5.1E1,1.1E1,2.7E1,7.3E1,3.6E-1,3.7E1,3E0,3.794E1,3.761E1,6.2E1,5.95E1,3.84E1,8E0,4.1E1,1.04E2,2.0791666E1,7.34375E-1,8.7E1,8.55E1,1.85E1,1E1,3.806E1,1.0875E2,2E0,4.019E1,-5E-2,-5E-2,5E-2,1.999356E-2,-3.4479037E-2,1.0354604E-2,3.147162E-2,-1.5915832E-2,1.1327884E-2,1.3083364E-2,3.5952475E-2,-2.3331054E-2,4.756092E-3,1.6720558E-2,5E-2,-1.7386865E-2,-4.710146E-2,-5.7904315E-3,4.294305E-2,3.865671E-2,-5.513814E-3,5E-2,-5E-2,5E-2,-5E-2,-2.1732919E-2,2.167251E-2,5E-2,-5E-2],"split_indices":[112,72,112,18,112,72,110,71,252,236,243,247,125,52,249,239,75,86,190,241,88,217,51,72,252,214,231,263,0,0,0,0,0,0,0,0,0,0,0,0,0,0,0,0,0,0,0,0,0,0,0,0,0,0,0,0,0],"split_type":[0,0,0,0,0,0,0,0,0,0,0,0,0,0,0,0,0,0,0,0,0,0,0,0,0,0,0,0,0,0,0,0,0,0,0,0,0,0,0,0,0,0,0,0,0,0,0,0,0,0,0,0,0,0,0,0,0],"sum_hessian":[5.893491E5,4.5995253E5,1.29396586E5,1.6291372E5,2.970388E5,1.4226043E4,1.1517054E5,5.5889242E4,1.07024484E5,8.950912E4,2.0752969E5,8.658579E3,5.567464E3,1.15067336E5,1.03206856E2,5.3163154E3,5.0572926E4,7.970876E4,2.7315725E4,8.082688E4,8.682232E3,1.7730136E5,3.0228332E4,5.8586514E3,2.7999272E3,8.7950604E2,4.687958E3,1.15034586E5,3.274981E1,7.737241E1,2.5834442E1,2.7858103E3,2.5305051E3,1.3751904E4,3.682102E4,5.3654387E4,2.6054373E4,1.7744086E4,9.571638E3,4.931953E4,3.1507352E4,3.2612583E3,5.4209736E3,3.5627855E4,1.416735E5,2.7146432E4,3.0819001E3,4.98222E3,8.7643134E2,2.7859514E3,1.397584E1,8.483558E2,3.1150288E1,3.0458076E3,1.6421504E3,1.15016516E5,1.8071112E1],"tree_param":{"num_deleted":"0","num_feature":"272","num_nodes":"57","size_leaf_vector":"1"}},{"base_weights":[2.136796E-2,4.5431864E-1,-2.9377753E-1,3.437816E-1,1E0,-4.841714E-1,1.3626043E-1,6.188084E-1,8.226982E-2,1E0,5.6654245E-1,-5.535029E-1,1.6167286E-1,-2.7841814E-2,4.6473107E-1,2.9421538E-1,7.6792467E-1,3.2992598E-1,-3.0270436E-1,1E0,-1E0,7.0795655E-1,-1E0,-4.8880022E-2,-6.533642E-1,6.24573E-3,6.281674E-1,-1.2645927E-1,5.5128384E-1,9.293102E-1,3.6212915E-1,8.3373515E-3,4.8023E-2,2.565149E-2,4.369401E-2,7.986744E-3,3.7221175E-2,2.3707831E-2,-2.4731401E-2,5E-2,-5E-2,-5E-2,5E-2,-5E-2,3.9462034E-2,-5E-2,5E-2,-1.0429782E-2,2.6658569E-2,-3.4674756E-2,1.6043724E-2,-1.2706696E-2,1.5717587E-2,-9.07072E-3,4.188996E-2,-1.097772E-2,2.254386E-2,-2.5205868E-3,4.3923225E-2,-2.4361443E-2,4.874959E-2,1.40076745E-2,4.0574804E-2],"categories":[],"categories_nodes":[],"categories_segments":[],"categories_sizes":[],"default_left":[0,0,0,0,0,0,0,0,0,0,0,0,0,0,0,0,0,0,0,0,0,0,0,0,0,0,0,0,0,0,0,0,0,0,0,0,0,0,0,0,0,0,0,0,0,0,0,0,0,0,0,0,0,0,0,0,0,0,0,0,0,0,0],"id":10,"left_children":[1,3,5,7,9,11,13,15,17,19,21,23,25,27,29,31,33,35,37,39,41,43,45,47,49,51,53,55,57,59,61,-1,-1,-1,-1,-1,-1,-1,-1,-1,-1,-1,-1,-1,-1,-1,-1,-1,-1,-1,-1,-1,-1,-1,-1,-1,-1,-1,-1,-1,-1,-1,-1],"loss_changes":[8.006012E4,1.6222699E4,2.7804082E4,1.500292E4,6.5428906E2,1.0539566E4,5.617226E3,4.9209023E3,1.0194709E4,3.5057422E2,9.780686E2,1.0711238E4,1.6544961E3,3.9689543E3,1.6545571E3,2.7179805E3,1.8810703E3,4.5901E3,6.241407E3,2.0885938E2,6.6084526E1,5.936448E2,1.6192444E2,3.264567E3,6.9377188E3,1.3732903E3,9.6798804E2,3.1917205E3,1.9907314E3,4.068374E2,1.0473923E3,0E0,0E0,0E0,0E0,0E0,0E0,0E0,0E0,0E0,0E0,0E0,0E0,0E0,0E0,0E0,0E0,0E0,0E0,0E0,0E0,0E0,0E0,0E0,0E0,0E0,0E0,0E0,0E0,0E0,0E0,0E0,0E0],"parents":[2147483647,0,0,1,1,2,2,3,3,4,4,5,5,6,6,7,7,8,8,9,9,10,10,11,11,12,12,13,13,14,14,15,15,16,16,17,17,18,18,19,19,20,20,21,21,22,22,23,23,24,24,25,25,26,26,27,27,28,28,29,29,30,30],"right_children":[2,4,6,8,10,12,14,16,18,20,22,24,26,28,30,32,34,36,38,40,42,44,46,48,50,52,54,56,58,60,62,-1,-1,-1,-1,-1,-1,-1,-1,-1,-1,-1,-1,-1,-1,-1,-1,-1,-1,-1,-1,-1,-1,-1,-1,-1,-1,-1,-1,-1,-1,-1,-1],"split_conditions":[9.99E2,4.3E1,4E0,9.99E2,3.5E1,3.794E1,2.3166666E1,3.6E-1,5E0,1.8525E2,1.8E0,8.9E1,1.8918919E1,3.783E1,8.2E1,1.65E1,4.1E1,2.0944445E1,5E0,4.8E0,9.4E0,6.4E1,9.09E0,9E1,2.2E1,3.794E1,1.7E1,1.7E0,2.8E1,5.57075E1,3.806E1,8.3373515E-3,4.8023E-2,2.565149E-2,4.369401E-2,7.986744E-3,3.7221175E-2,2.3707831E-2,-2.4731401E-2,5E-2,-5E-2,-5E-2,5E-2,-5E-2,3.9462034E-2,-5E-2,5E-2,-1.0429782E-2,2.6658569E-2,-3.4674756E-2,1.6043724E-2,-1.2706696E-2,1.5717587E-2,-9.07072E-3,4.188996E-2,-1.097772E-2,2.254386E-2,-2.5205868E-3,4.3923225E-2,-2.4361443E-2,4.874959E-2,1.40076745E-2,4.0574804E-2],"split_indices":[116,116,147,18,176,243,190,71,72,213,26,218,8,253,216,54,75,191,116,14,20,94,26,91,62,253,12,26,12,126,245,0,0,0,0,0,0,0,0,0,0,0,0,0,0,0,0,0,0,0,0,0,0,0,0,0,0,0,0,0,0,0,0],"split_type":[0,0,0,0,0,0,0,0,0,0,0,0,0,0,0,0,0,0,0,0,0,0,0,0,0,0,0,0,0,0,0,0,0,0,0,0,0,0,0,0,0,0,0,0,0,0,0,0,0,0,0,0,0,0,0,0,0,0,0,0,0,0,0],"sum_hessian":[5.8676644E5,2.47183E5,3.3958344E5,2.0859744E5,3.8585555E4,2.3537431E5,1.04209125E5,1.01670836E5,1.0692661E5,3.5098855E4,3.486699E3,2.1255648E5,2.2817832E4,6.9492125E4,3.4717E4,3.2005318E4,6.9665516E4,6.5068074E4,4.185853E4,3.5041734E4,5.712403E1,3.2686938E3,2.1800511E2,3.511476E4,1.7744172E5,1.711609E4,5.701743E3,5.938109E4,1.0111036E4,6.278778E3,2.843822E4,2.6866393E4,5.138927E3,2.045741E4,4.920811E4,4.612905E4,1.8939025E4,8.292205E3,3.356633E4,3.5021152E4,2.0582775E1,4.8174282E1,8.949749E0,1.0458614E2,3.1641077E3,1.9265166E2,2.5353455E1,2.7554434E4,7.5603286E3,1.7042197E5,7.0197427E3,9.276617E3,7.8394717E3,1.1727623E3,4.528981E3,5.1136055E4,8.245034E3,3.561736E3,6.5493E3,1.9585461E2,6.082923E3,2.4052139E4,4.386083E3],"tree_param":{"num_deleted":"0","num_feature":"272","num_nodes":"63","size_leaf_vector":"1"}},{"base_weights":[1.9046366E-2,-2.609214E-1,1E0,1.781408E-1,-4.7869152E-1,5.916875E-1,1E0,-2.5763658E-3,4.003282E-1,-6.3484824E-1,-7.98323E-2,2.9435742E-1,9.084036E-1,1E0,-2.8692394E-1,1.669345E-1,-2.697751E-1,1E0,3.3875853E-1,-2.2565246E-1,-7.764727E-1,-1.9922161E-1,4.8934403E-1,9.340125E-1,1.3028713E-1,9.292682E-1,-5E-2,1E0,8.1780785E-1,-5E-2,1E0,2.2488032E-2,1.7778864E-3,-3.452046E-2,1.2846407E-3,5E-2,9.736221E-3,-1.4415035E-2,1.9675318E-2,-1.4467421E-2,3.4065574E-2,-4.1882537E-2,1.2230664E-2,-2.5017047E-2,2.3394634E-3,4.3463472E-2,1.1725771E-2,-4.54139E-2,5E-2,-7.310256E-3,3.1885084E-2,4.7094285E-2,-5E-2,5E-2,-5E-2,-5E-2,4.266914E-2,5E-2,2.6267221E-2],"categories":[],"categories_nodes":[],"categories_segments":[],"categories_sizes":[],"default_left":[0,0,0,0,0,0,0,0,0,0,0,0,0,0,0,0,0,0,0,0,0,0,0,0,0,0,0,0,0,0,0,0,0,0,0,0,0,0,0,0,0,0,0,0,0,0,0,0,0,0,0,0,0,0,0,0,0,0,0],"id":11,"left_children":[1,3,5,7,9,11,13,15,17,19,21,23,25,27,29,31,33,35,37,39,41,43,45,47,49,51,-1,53,55,-1,57,-1,-1,-1,-1,-1,-1,-1,-1,-1,-1,-1,-1,-1,-1,-1,-1,-1,-1,-1,-1,-1,-1,-1,-1,-1,-1,-1,-1],"loss_changes":[1.7411175E5,4.426701E4,1.4600938E3,6.1633916E3,1.9275531E4,8.2502026E2,3.9290625E2,3.8340723E3,2.8285215E3,1.2888547E4,5.9170776E3,4.7442932E2,2.3206079E2,2.6290625E2,5.5343097E2,1.9244404E3,4.0836614E3,3.7522803E2,2.1662021E3,3.3037537E3,1.0321133E4,5.3319795E3,1.4615117E3,2.0910675E2,5.0513995E2,1.473352E2,0E0,2.7528125E2,7.123247E2,0E0,2.0077362E0,0E0,0E0,0E0,0E0,0E0,0E0,0E0,0E0,0E0,0E0,0E0,0E0,0E0,0E0,0E0,0E0,0E0,0E0,0E0,0E0,0E0,0E0,0E0,0E0,0E0,0E0,0E0,0E0],"parents":[2147483647,0,0,1,1,2,2,3,3,4,4,5,5,6,6,7,7,8,8,9,9,10,10,11,11,12,12,13,13,14,14,15,15,16,16,17,17,18,18,19,19,20,20,21,21,22,22,23,23,24,24,25,25,27,27,28,28,30,30],"right_children":[2,4,6,8,10,12,14,16,18,20,22,24,26,28,30,32,34,36,38,40,42,44,46,48,50,52,-1,54,56,-1,58,-1,-1,-1,-1,-1,-1,-1,-1,-1,-1,-1,-1,-1,-1,-1,-1,-1,-1,-1,-1,-1,-1,-1,-1,-1,-1,-1,-1],"split_conditions":[5.5E1,5E0,5.9E1,1.8533333E1,2E0,3.6E-1,9.99E2,1.055E2,9E1,9E0,3E0,7.05E1,5.6E1,1.01045456E2,1.21E2,5.3E1,6.9E0,1.21E0,3.6E-1,3E0,1.15E1,1.6E1,7E0,1.6470589E1,3.761E1,4.74E2,-5E-2,9.9375E1,6.3375E1,-5E-2,5.9721575E0,2.2488032E-2,1.7778864E-3,-3.452046E-2,1.2846407E-3,5E-2,9.736221E-3,-1.4415035E-2,1.9675318E-2,-1.4467421E-2,3.4065574E-2,-4.1882537E-2,1.2230664E-2,-2.5017047E-2,2.3394634E-3,4.3463472E-2,1.1725771E-2,-4.54139E-2,5E-2,-7.310256E-3,3.1885084E-2,4.7094285E-2,-5E-2,5E-2,-5E-2,-5E-2,4.266914E-2,5E-2,2.6267221E-2],"split_indices":[112,72,112,191,231,71,139,23,209,112,236,121,21,124,86,1,20,26,71,236,62,195,1,191,243,178,0,39,91,0,100,0,0,0,0,0,0,0,0,0,0,0,0,0,0,0,0,0,0,0,0,0,0,0,0,0,0,0,0],"split_type":[0,0,0,0,0,0,0,0,0,0,0,0,0,0,0,0,0,0,0,0,0,0,0,0,0,0,0,0,0,0,0,0,0,0,0,0,0,0,0,0,0,0,0,0,0,0,0,0,0,0,0,0,0,0,0,0,0,0,0],"sum_hessian":[5.8401125E5,4.629713E5,1.21039914E5,1.5349636E5,3.0947497E5,8.762873E3,1.1227705E5,8.464827E4,6.8848086E4,2.224021E5,8.707287E4,4.520758E3,4.2421147E3,1.1204021E5,2.3683392E2,5.179188E4,3.285639E4,5.753148E3,6.3094934E4,5.7183715E4,1.6521839E5,7.197598E4,1.5096891E4,9.218972E2,3.5988608E3,4.21345E3,2.8664507E1,1.04090664E5,7.9495464E3,1.2729153E2,1.095424E2,1.6426568E4,3.5365312E4,1.3556189E4,1.9300203E4,5.1739688E3,5.7917926E2,5.066061E3,5.8028875E4,5.3431883E4,3.7518335E3,1.5587912E5,9.339262E3,3.2362717E4,3.961326E4,6.059836E3,9.037055E3,5.7800983E1,8.640962E2,2.329965E3,1.2688956E3,4.1981978E3,1.52527895E1,1.0406461E5,2.6055202E1,9.462386E1,7.854923E3,9.719226E1,1.2350141E1],"tree_param":{"num_deleted":"0","num_feature":"272","num_nodes":"59","size_leaf_vector":"1"}},{"base_weights":[2.1638265E-2,-2.468464E-1,1E0,1.678855E-1,-4.5238638E-1,5.4174876E-1,1E0,5.106754E-2,4.8261985E-1,-5.739196E-1,6.4461514E-2,8.165155E-1,1.9981849E-1,1E0,-1E0,2.1796323E-1,-1.784558E-1,7.4702305E-1,3.3283907E-1,-2.573775E-1,-7.4073744E-1,5.743567E-1,-3.2404162E-2,-5E-2,8.285364E-1,1E0,2.7575022E-2,1E0,8.1212556E-1,-5E-2,5E-2,2.093948E-2,2.558313E-3,-1.8850783E-2,8.111967E-3,5E-2,3.138705E-2,1.1245867E-2,3.4283992E-2,-2.093399E-2,6.79935E-3,-4.0307876E-2,2.1546986E-2,4.5272928E-2,1.5146509E-2,-7.2280536E-3,2.7705044E-2,-4.5106582E-2,4.235239E-2,5E-2,-5E-2,9.402908E-3,-5E-2,5E-2,-5E-2,1.7751753E-2,4.8846234E-2],"categories":[],"categories_nodes":[],"categories_segments":[],"categories_sizes":[],"default_left":[0,0,0,0,0,0,0,0,0,0,0,0,0,0,0,0,0,0,0,0,0,0,0,0,0,0,0,0,0,0,0,0,0,0,0,0,0,0,0,0,0,0,0,0,0,0,0,0,0,0,0,0,0,0,0,0,0],"id":12,"left_children":[1,3,5,7,9,11,13,15,17,19,21,23,25,27,29,31,33,35,37,39,41,43,45,-1,47,49,51,53,55,-1,-1,-1,-1,-1,-1,-1,-1,-1,-1,-1,-1,-1,-1,-1,-1,-1,-1,-1,-1,-1,-1,-1,-1,-1,-1,-1,-1],"loss_changes":[1.6130016E5,3.9373984E4,1.791E3,5.6274683E3,1.9399445E4,8.01574E2,3.806875E2,4.276142E3,1.6405654E3,1.3203273E4,2.9040615E3,1.497334E2,6.2504895E2,3.125625E2,1.0345038E2,2.1649912E3,3.1793452E3,5.925654E2,1.0070708E3,5.4756187E3,1.2551711E4,8.432947E2,3.2503665E3,0E0,1.5179419E2,1.0995337E2,5.930708E2,2.6772656E2,6.688574E2,0E0,0E0,0E0,0E0,0E0,0E0,0E0,0E0,0E0,0E0,0E0,0E0,0E0,0E0,0E0,0E0,0E0,0E0,0E0,0E0,0E0,0E0,0E0,0E0,0E0,0E0,0E0,0E0],"parents":[2147483647,0,0,1,1,2,2,3,3,4,4,5,5,6,6,7,7,8,8,9,9,10,10,11,11,12,12,13,13,14,14,15,15,16,16,17,17,18,18,19,19,20,20,21,21,22,22,24,24,25,25,26,26,27,27,28,28],"right_children":[2,4,6,8,10,12,14,16,18,20,22,24,26,28,30,32,34,36,38,40,42,44,46,-1,48,50,52,54,56,-1,-1,-1,-1,-1,-1,-1,-1,-1,-1,-1,-1,-1,-1,-1,-1,-1,-1,-1,-1,-1,-1,-1,-1,-1,-1,-1,-1],"split_conditions":[5.5E1,5E0,5.9E1,2.0944445E1,2.1931818E1,1.6E1,7.3E1,3.53E1,9.2E1,1.3E1,1.11E2,-4.114286E0,6.5E1,1.0026923E2,3.7933334E1,1.9E1,1.04E2,1.4142135E0,3.81E1,7.902098E-1,1.6E1,9.4E1,3.833E1,-5E-2,6E1,4.425306E0,5.4E1,5.65E1,7.4E1,-5E-2,5E-2,2.093948E-2,2.558313E-3,-1.8850783E-2,8.111967E-3,5E-2,3.138705E-2,1.1245867E-2,3.4283992E-2,-2.093399E-2,6.79935E-3,-4.0307876E-2,2.1546986E-2,4.5272928E-2,1.5146509E-2,-7.2280536E-3,2.7705044E-2,-4.5106582E-2,4.235239E-2,5E-2,-5E-2,9.402908E-3,-5E-2,5E-2,-5E-2,1.7751753E-2,4.8846234E-2],"split_indices":[112,72,112,191,191,72,179,242,219,112,209,204,121,124,248,81,87,221,246,241,51,161,244,0,90,100,176,52,94,0,0,0,0,0,0,0,0,0,0,0,0,0,0,0,0,0,0,0,0,0,0,0,0,0,0,0,0],"split_type":[0,0,0,0,0,0,0,0,0,0,0,0,0,0,0,0,0,0,0,0,0,0,0,0,0,0,0,0,0,0,0,0,0,0,0,0,0,0,0,0,0,0,0,0,0,0,0,0,0,0,0,0,0,0,0,0,0],"sum_hessian":[5.81675E5,4.6189572E5,1.1977931E5,1.5305881E5,3.088369E5,8.532559E3,1.1124676E5,1.1162779E5,4.1431016E4,2.500413E5,5.8795598E4,4.730144E3,3.8024146E3,1.11154984E5,9.177261E1,6.4631594E4,4.6996195E4,1.4981198E4,2.6449818E4,8.629547E4,1.6374583E5,9.385572E3,4.9410027E4,1.6919237E1,4.713225E3,5.6599335E2,3.2364211E3,1.02272125E5,8.88286E3,7.474033E1,1.7032276E1,2.932377E4,3.5307824E4,2.9691592E4,1.7304604E4,3.7798357E3,1.1201362E4,2.0255883E4,6.193935E3,6.11999E4,2.509557E4,1.5508694E5,8.658899E3,4.2269526E3,5.15862E3,4.1478816E4,7.931209E3,4.9374557E1,4.6638506E3,5.5292346E2,1.306988E1,2.8417546E3,3.9466653E2,1.0222367E5,4.8449005E1,2.3547703E3,6.52809E3],"tree_param":{"num_deleted":"0","num_feature":"272","num_nodes":"57","size_leaf_vector":"1"}},{"base_weights":[1.9398453E-2,4.1118693E-1,-2.6583716E-1,5.2573085E-1,-9.057724E-2,-4.382559E-1,1.2076735E-1,4.254395E-1,9.7522986E-1,2.361536E-1,-6.0138756E-1,-5.239601E-1,-1.12625025E-2,-1.2530644E-1,2.9442647E-1,5.830678E-1,9.639741E-2,1E0,7.710798E-1,5.671042E-1,-2.2286065E-1,-8.006136E-1,9.5071185E-1,-1.2813E-1,-6.3150895E-1,1.217991E-1,-4.8825252E-1,-4.7375795E-1,1.5064457E-1,9.8682237E-1,2.370608E-1,2.3629958E-2,4.205302E-2,-2.5364785E-3,3.1646896E-2,5E-2,-5E-2,2.5561407E-2,5E-2,3.773397E-2,2.9365167E-3,3.3080116E-2,-2.473565E-2,-5E-2,-8.253692E-4,5E-2,7.3163616E-3,-1.0714607E-2,2.0627972E-2,-6.1846827E-3,-3.49262E-2,1.2566688E-2,-1.6949492E-2,-4.0920928E-2,1.53935645E-2,-6.1503947E-3,-4.1479923E-2,3.9612662E-2,-1.0952641E-3,5E-2,-5E-2,5.523445E-3,2.6931051E-2],"categories":[],"categories_nodes":[],"categories_segments":[],"categories_sizes":[],"default_left":[0,0,0,0,0,0,0,0,0,0,0,0,0,0,0,0,0,0,0,0,0,0,0,0,0,0,0,0,0,0,0,0,0,0,0,0,0,0,0,0,0,0,0,0,0,0,0,0,0,0,0,0,0,0,0,0,0,0,0,0,0,0,0],"id":13,"left_children":[1,3,5,7,9,11,13,15,17,19,21,23,25,27,29,31,33,35,37,39,41,43,45,47,49,51,53,55,57,59,61,-1,-1,-1,-1,-1,-1,-1,-1,-1,-1,-1,-1,-1,-1,-1,-1,-1,-1,-1,-1,-1,-1,-1,-1,-1,-1,-1,-1,-1,-1,-1,-1],"loss_changes":[6.4571062E4,1.3991211E4,2.2288586E4,8.934215E3,7.5513115E3,8.462336E3,4.4071177E3,8.40433E3,6.2516016E2,4.1921006E3,5.458604E3,8.198574E3,2.4535366E3,4.103E3,2.4013003E3,3.121957E3,4.143124E3,2.3144727E2,1.0618472E3,1.528979E3,2.7801968E3,2.6260342E3,5.494724E2,1.91706E3,5.1536055E3,1.804191E3,2.216556E3,2.3535688E3,2.6363245E3,4.9577148E2,2.131532E3,0E0,0E0,0E0,0E0,0E0,0E0,0E0,0E0,0E0,0E0,0E0,0E0,0E0,0E0,0E0,0E0,0E0,0E0,0E0,0E0,0E0,0E0,0E0,0E0,0E0,0E0,0E0,0E0,0E0,0E0,0E0,0E0],"parents":[2147483647,0,0,1,1,2,2,3,3,4,4,5,5,6,6,7,7,8,8,9,9,10,10,11,11,12,12,13,13,14,14,15,15,16,16,17,17,18,18,19,19,20,20,21,21,22,22,23,23,24,24,25,25,26,26,27,27,28,28,29,29,30,30],"right_children":[2,4,6,8,10,12,14,16,18,20,22,24,26,28,30,32,34,36,38,40,42,44,46,48,50,52,54,56,58,60,62,-1,-1,-1,-1,-1,-1,-1,-1,-1,-1,-1,-1,-1,-1,-1,-1,-1,-1,-1,-1,-1,-1,-1,-1,-1,-1,-1,-1,-1,-1,-1,-1],"split_conditions":[9.99E2,9.99E2,4E0,4.3E1,7E0,3.767E1,1.45E1,7E0,4.3E1,4.7871355E-2,2.425E1,3.606E1,7.6E1,3.7E1,5.9E1,2.1875E1,1.725E1,4.65E1,2.05E1,1.3E1,1.025E2,3.805E1,5.3033006E-1,2.5E1,7E0,1.1E1,3.761E1,4.7E1,9.99E2,3E0,2.56E1,2.3629958E-2,4.205302E-2,-2.5364785E-3,3.1646896E-2,5E-2,-5E-2,2.5561407E-2,5E-2,3.773397E-2,2.9365167E-3,3.3080116E-2,-2.473565E-2,-5E-2,-8.253692E-4,5E-2,7.3163616E-3,-1.0714607E-2,2.0627972E-2,-6.1846827E-3,-3.49262E-2,1.2566688E-2,-1.6949492E-2,-4.0920928E-2,1.53935645E-2,-6.1503947E-3,-4.1479923E-2,3.9612662E-2,-1.0952641E-3,5E-2,-5E-2,5.523445E-3,2.6931051E-2],"split_indices":[116,176,147,116,116,243,195,72,24,257,58,243,21,12,217,190,195,187,56,81,212,243,201,7,72,109,252,21,270,145,190,0,0,0,0,0,0,0,0,0,0,0,0,0,0,0,0,0,0,0,0,0,0,0,0,0,0,0,0,0,0,0,0],"split_type":[0,0,0,0,0,0,0,0,0,0,0,0,0,0,0,0,0,0,0,0,0,0,0,0,0,0,0,0,0,0,0,0,0,0,0,0,0,0,0,0,0,0,0,0,0,0,0,0,0,0,0,0,0,0,0,0,0,0,0,0,0,0,0],"sum_hessian":[5.778046E5,2.4343348E5,3.3437116E5,1.9819012E5,4.524336E4,2.3124145E5,1.031297E5,1.6203838E5,3.6151746E4,2.7593928E4,1.7649434E4,1.9258619E5,3.865527E4,4.266871E4,6.046099E4,1.0955505E5,5.2483336E4,2.3780861E4,1.2370885E4,1.6033494E4,1.1560433E4,1.5642111E4,2.0073228E3,4.1147246E4,1.5143894E5,3.0224545E4,8.430724E3,1.8856867E4,2.3811844E4,4.624745E3,5.5836242E4,7.671125E4,3.2843797E4,4.11895E4,1.1293837E4,2.3758768E4,2.209285E1,7.161844E3,5.20904E3,1.1711725E4,4.32177E3,2.7175469E3,8.842886E3,1.2284208E4,3.3579028E3,1.2462703E3,7.610524E2,3.5491984E4,5.6552593E3,1.7655416E4,1.3378352E5,2.359273E4,6.631814E3,5.959281E3,2.4714426E3,9.497036E3,9.359832E3,5.045836E3,1.8766008E4,4.5656787E3,5.9066345E1,3.9328082E4,1.6508162E4],"tree_param":{"num_deleted":"0","num_feature":"272","num_nodes":"63","size_leaf_vector":"1"}},{"base_weights":[1.8201387E-2,-2.2859731E-1,3.5074133E-1,-3.9064732E-1,1.6289878E-1,5.069898E-1,-1.2238914E-1,-4.47513E-1,5.5332565E-1,4.1083056E-1,-5.3414118E-2,3.6314198E-1,7.0115477E-1,-5.7299143E-1,1.7653188E-1,7.916601E-2,-5.685972E-1,1.8722308E-1,8.9612675E-1,3.0391002E-1,9.632202E-1,-2.0602417E-1,4.5334882E-1,5.7197505E-1,1.6456352E-1,6.4100516E-1,9.7216064E-1,5.129215E-1,-6.825546E-1,-1.0712536E-2,7.9467064E-1,-5.6419047E-3,2.676489E-2,-3.9060462E-2,-1.8506313E-2,3.458681E-2,-9.8345205E-3,-5E-2,4.65641E-2,5.8872546E-3,3.3799823E-2,-5E-2,4.8943233E-2,4.011797E-2,-1.4184556E-2,3.081095E-2,-2.8644884E-3,2.3918148E-2,5E-2,-1.4513704E-3,2.158098E-2,3.262967E-2,-5E-2,4.9901493E-2,-2.1383758E-3,4.1273296E-2,-5E-2,-3.9693177E-2,1.1106563E-2,2.1373477E-2,-2.0127883E-2,5E-2,2.3437496E-2],"categories":[],"categories_nodes":[],"categories_segments":[],"categories_sizes":[],"default_left":[0,0,0,0,0,0,0,0,0,0,0,0,0,0,0,0,0,0,0,0,0,0,0,0,0,0,0,0,0,0,0,0,0,0,0,0,0,0,0,0,0,0,0,0,0,0,0,0,0,0,0,0,0,0,0,0,0,0,0,0,0,0,0],"id":14,"left_children":[1,3,5,7,9,11,13,15,17,19,21,23,25,27,29,31,33,35,37,39,41,43,45,47,49,51,53,55,57,59,61,-1,-1,-1,-1,-1,-1,-1,-1,-1,-1,-1,-1,-1,-1,-1,-1,-1,-1,-1,-1,-1,-1,-1,-1,-1,-1,-1,-1,-1,-1,-1,-1],"loss_changes":[4.7250133E4,2.0965516E4,1.8131123E4,1.25464375E4,5.1885103E3,5.1493086E3,8.20146E3,1.4058309E4,1.6664951E3,2.6620835E3,3.9959226E3,4.3920205E3,1.2783789E3,2.8895093E3,4.2369077E3,3.609001E3,7.5630586E3,1.2442181E3,6.277949E2,2.616157E3,2.809707E2,3.1102405E3,9.946101E2,2.2575742E3,2.8067825E3,1.3173105E3,3.7416992E2,1.2801562E3,2.2214482E3,4.8243247E3,7.326162E2,0E0,0E0,0E0,0E0,0E0,0E0,0E0,0E0,0E0,0E0,0E0,0E0,0E0,0E0,0E0,0E0,0E0,0E0,0E0,0E0,0E0,0E0,0E0,0E0,0E0,0E0,0E0,0E0,0E0,0E0,0E0,0E0],"parents":[2147483647,0,0,1,1,2,2,3,3,4,4,5,5,6,6,7,7,8,8,9,9,10,10,11,11,12,12,13,13,14,14,15,15,16,16,17,17,18,18,19,19,20,20,21,21,22,22,23,23,24,24,25,25,26,26,27,27,28,28,29,29,30,30],"right_children":[2,4,6,8,10,12,14,16,18,20,22,24,26,28,30,32,34,36,38,40,42,44,46,48,50,52,54,56,58,60,62,-1,-1,-1,-1,-1,-1,-1,-1,-1,-1,-1,-1,-1,-1,-1,-1,-1,-1,-1,-1,-1,-1,-1,-1,-1,-1,-1,-1,-1,-1,-1,-1],"split_conditions":[3E-1,2E0,9.99E2,1.25E1,9.99E2,1.988889E1,4.6E1,8.7E1,3.72E1,4E1,3.772E1,9.99E2,3.811E1,8E1,1.14E2,1.91E1,1E0,9.99E2,1.8E1,1.48E1,8.15E1,8.15E1,4E0,4.4E1,3.772E1,7.9E1,1.32E1,1E0,1.6E0,9.6E1,7E0,-5.6419047E-3,2.676489E-2,-3.9060462E-2,-1.8506313E-2,3.458681E-2,-9.8345205E-3,-5E-2,4.65641E-2,5.8872546E-3,3.3799823E-2,-5E-2,4.8943233E-2,4.011797E-2,-1.4184556E-2,3.081095E-2,-2.8644884E-3,2.3918148E-2,5E-2,-1.4513704E-3,2.158098E-2,3.262967E-2,-5E-2,4.9901493E-2,-2.1383758E-3,4.1273296E-2,-5E-2,-3.9693177E-2,1.1106563E-2,2.1373477E-2,-2.0127883E-2,5E-2,2.3437496E-2],"split_indices":[71,231,176,62,1,191,82,218,247,1,249,18,245,217,87,191,231,170,75,266,159,213,181,18,243,21,109,234,26,78,239,0,0,0,0,0,0,0,0,0,0,0,0,0,0,0,0,0,0,0,0,0,0,0,0,0,0,0,0,0,0,0,0],"split_type":[0,0,0,0,0,0,0,0,0,0,0,0,0,0,0,0,0,0,0,0,0,0,0,0,0,0,0,0,0,0,0,0,0,0,0,0,0,0,0,0,0,0,0,0,0,0,0,0,0,0,0,0,0,0,0,0,0,0,0,0,0,0,0],"sum_hessian":[5.7572475E5,3.3046575E5,2.4525898E5,2.3372225E5,9.6743484E4,1.8437139E5,6.08876E4,2.2044311E5,1.3279143E4,4.507681E4,5.1666676E4,1.05910266E5,7.846112E4,2.4282514E4,3.660509E4,4.120675E4,1.7923636E5,6.4220776E3,6.8570645E3,3.776799E4,7.308822E3,3.9709023E4,1.1957653E4,5.162133E4,5.428894E4,6.4212547E4,1.4248571E4,2.2251108E3,2.2057402E4,2.8095486E4,8.509603E3,2.9000172E4,1.2206578E4,8.653394E4,9.270242E4,2.7748093E3,3.6472683E3,7.8818794E1,6.7782456E3,2.5174045E4,1.2593942E4,4.311578E1,7.265706E3,2.839052E3,3.686997E4,9.065856E3,2.8917969E3,4.3056105E4,8.565224E3,3.1474053E4,2.2814887E4,6.3797867E4,4.1467978E2,1.38944375E4,3.5413452E2,1.9125499E3,3.12561E2,1.9640979E4,2.4164238E3,1.3263474E4,1.4832013E4,4.639871E3,3.869732E3],"tree_param":{"num_deleted":"0","num_feature":"272","num_nodes":"63","size_leaf_vector":"1"}},{"base_weights":[2.0651035E-2,-2.3038328E-1,9.9762625E-1,2.729831E-1,-3.4334892E-1,5.260785E-1,1E0,4.644109E-1,-6.261093E-2,-4.2326456E-1,2.774769E-1,8.2048446E-1,3.0898258E-1,1E0,8.5552096E-1,6.762116E-1,2.6618445E-1,-3.13456E-1,3.2928702E-1,-5.078525E-1,1.0027677E-1,-9.4577485E-1,3.108945E-1,8.465875E-1,-5E-2,9.674473E-2,8.9021224E-1,1E0,-1E0,6.8261254E-1,1E0,4.5775365E-2,2.5833556E-2,6.0138935E-3,3.2310825E-2,2.1453744E-2,-2.4054518E-2,4.6558687E-3,3.5505805E-2,-2.9039918E-2,-3.3219636E-4,2.0661531E-2,-4.3654274E-3,5E-2,-5E-2,4.3145284E-2,1.2523419E-2,4.665306E-2,1.9755943E-2,-5.933116E-3,3.938128E-2,-5E-2,5E-2,5E-2,1.8426826E-2,-5E-2,5E-2,5E-2,2.8636107E-2,5E-2,3.0328754E-2],"categories":[],"categories_nodes":[],"categories_segments":[],"categories_sizes":[],"default_left":[0,0,0,0,0,0,0,0,0,0,0,0,0,0,0,0,0,0,0,0,0,0,0,0,0,0,0,0,0,0,0,0,0,0,0,0,0,0,0,0,0,0,0,0,0,0,0,0,0,0,0,0,0,0,0,0,0,0,0,0,0],"id":15,"left_children":[1,3,5,7,9,11,13,15,17,19,21,23,25,27,29,31,33,35,37,39,41,43,45,47,-1,49,51,53,55,57,59,-1,-1,-1,-1,-1,-1,-1,-1,-1,-1,-1,-1,-1,-1,-1,-1,-1,-1,-1,-1,-1,-1,-1,-1,-1,-1,-1,-1,-1,-1],"loss_changes":[1.4060058E5,2.5934896E4,1.9188438E3,5.3704224E3,1.8481043E4,5.462639E2,7.7521875E2,2.2347422E3,2.9851729E3,1.4614898E4,1.7368691E3,2.368667E2,6.0723303E2,1.6384375E2,1.1740234E3,9.8199316E2,1.5247106E3,2.3048357E3,1.0658333E3,1.03874375E4,2.6948843E3,6.421727E2,1.379145E3,1.4003906E2,0E0,5.3695605E2,3.475973E2,1.213125E2,5.8702866E1,8.967627E2,2.9557227E2,0E0,0E0,0E0,0E0,0E0,0E0,0E0,0E0,0E0,0E0,0E0,0E0,0E0,0E0,0E0,0E0,0E0,0E0,0E0,0E0,0E0,0E0,0E0,0E0,0E0,0E0,0E0,0E0,0E0,0E0],"parents":[2147483647,0,0,1,1,2,2,3,3,4,4,5,5,6,6,7,7,8,8,9,9,10,10,11,11,12,12,13,13,14,14,15,15,16,16,17,17,18,18,19,19,20,20,21,21,22,22,23,23,25,25,26,26,27,27,28,28,29,29,30,30],"right_children":[2,4,6,8,10,12,14,16,18,20,22,24,26,28,30,32,34,36,38,40,42,44,46,48,-1,50,52,54,56,58,60,-1,-1,-1,-1,-1,-1,-1,-1,-1,-1,-1,-1,-1,-1,-1,-1,-1,-1,-1,-1,-1,-1,-1,-1,-1,-1,-1,-1,-1,-1],"split_conditions":[5.5E1,8E0,5.9E1,4.7871355E-2,3.772E1,1.1E1,4.3E1,1.015E2,1.07E2,1.95E1,3.556E1,5.6E1,2.2304348E1,1.62E2,3.744E1,6.3E1,3.772E1,1.025E2,3.2E1,3E0,1.255E2,1E0,1.11E2,3E0,-5E-2,3.73E1,8.07E1,3.05E0,2.32E2,7E0,1.02333336E2,4.5775365E-2,2.5833556E-2,6.0138935E-3,3.2310825E-2,2.1453744E-2,-2.4054518E-2,4.6558687E-3,3.5505805E-2,-2.9039918E-2,-3.3219636E-4,2.0661531E-2,-4.3654274E-3,5E-2,-5E-2,4.3145284E-2,1.2523419E-2,4.665306E-2,1.9755943E-2,-5.933116E-3,3.938128E-2,-5E-2,5E-2,5E-2,1.8426826E-2,-5E-2,5E-2,5E-2,2.8636107E-2,5E-2,3.0328754E-2],"split_indices":[112,116,112,257,253,173,24,23,87,194,252,21,191,217,243,127,243,212,170,236,209,222,209,11,0,251,91,138,0,173,124,0,0,0,0,0,0,0,0,0,0,0,0,0,0,0,0,0,0,0,0,0,0,0,0,0,0,0,0,0,0],"split_type":[0,0,0,0,0,0,0,0,0,0,0,0,0,0,0,0,0,0,0,0,0,0,0,0,0,0,0,0,0,0,0,0,0,0,0,0,0,0,0,0,0,0,0,0,0,0,0,0,0,0,0,0,0,0,0,0,0,0,0,0,0],"sum_hessian":[5.7328294E5,4.560909E5,1.1719204E5,8.359527E4,3.7249562E5,8.549777E3,1.08642266E5,5.3231086E4,3.0364186E4,3.3001488E5,4.248077E4,3.6275894E3,4.922188E3,7.1457445E4,3.718482E4,2.5733252E4,2.7497834E4,1.8513994E4,1.185019E4,2.8411138E5,4.5903492E4,1.1289305E3,4.135184E4,3.5954863E3,3.2102997E1,3.6064485E3,1.3157395E3,7.142769E4,2.9756021E1,1.9369133E4,1.7815688E4,1.029179E4,1.5441461E4,1.9870299E4,7.627533E3,3.4096228E3,1.5104372E4,7.315041E3,4.53515E3,2.4801512E5,3.6096254E4,1.720264E4,2.8700852E4,1.2934477E2,9.995858E2,4.0786685E3,3.727317E4,3.0166204E3,5.7886615E2,2.749897E3,8.5655145E2,8.527009E1,1.2304695E3,7.1121984E4,3.056994E2,2.1025131E1,8.730889E0,3.7648103E3,1.5604322E4,1.5900638E4,1.9150505E3],"tree_param":{"num_deleted":"0","num_feature":"272","num_nodes":"61","size_leaf_vector":"1"}},{"base_weights":[2.303145E-2,-2.1566623E-1,9.6538967E-1,1.6119096E-1,-3.870805E-1,4.929922E-1,1E0,5.908981E-1,7.971943E-2,-5.456665E-1,-8.834575E-2,7.698666E-1,2.4621421E-1,1E0,8.2575566E-1,9.394536E-1,4.117148E-1,-8.773371E-3,4.4397172E-1,-1.6977179E-1,-6.6907054E-1,5.363119E-1,-1.7899093E-1,8.7415993E-1,3.2834753E-1,-2.467575E-1,4.9104682E-1,1E0,-1E0,6.9231987E-1,1E0,4.8552282E-2,-2.3490729E-2,3.281867E-2,6.2710317E-3,7.099037E-3,-1.23042725E-2,-3.089332E-2,2.4490284E-2,-1.18837925E-2,3.384516E-2,-3.6886826E-2,1.6350506E-2,4.1453864E-2,7.656505E-3,9.2329895E-3,-1.6472062E-2,-5E-2,4.5396872E-2,-5E-2,3.0471308E-2,1.4777913E-2,-5E-2,3.9696157E-2,1.0492846E-2,5E-2,-5E-2,-5E-2,5E-2,5E-2,2.9727304E-2,5E-2,5.814859E-3],"categories":[],"categories_nodes":[],"categories_segments":[],"categories_sizes":[],"default_left":[0,0,0,0,0,0,0,0,0,0,0,0,0,0,0,0,0,0,0,0,0,0,0,0,0,0,0,0,0,0,0,0,0,0,0,0,0,0,0,0,0,0,0,0,0,0,0,0,0,0,0,0,0,0,0,0,0,0,0,0,0,0,0],"id":16,"left_children":[1,3,5,7,9,11,13,15,17,19,21,23,25,27,29,31,33,35,37,39,41,43,45,47,49,51,53,55,57,59,61,-1,-1,-1,-1,-1,-1,-1,-1,-1,-1,-1,-1,-1,-1,-1,-1,-1,-1,-1,-1,-1,-1,-1,-1,-1,-1,-1,-1,-1,-1,-1,-1],"loss_changes":[1.2833135E5,2.940619E4,2.0258906E3,4.9824395E3,1.4823309E4,5.752772E2,1.1158594E3,1.4162778E3,3.8564026E3,9.480906E3,6.1438145E3,1.8245947E2,5.377784E2,1.5814844E2,1.1335195E3,3.4330615E2,1.0494004E3,3.4436423E3,1.1383809E3,2.9045386E3,1.052475E4,1.542396E3,5.184211E3,2.593235E2,3.2462723E2,6.0727484E2,2.5335132E2,1.4328125E2,5.6964443E1,9.20751E2,3.634209E2,0E0,0E0,0E0,0E0,0E0,0E0,0E0,0E0,0E0,0E0,0E0,0E0,0E0,0E0,0E0,0E0,0E0,0E0,0E0,0E0,0E0,0E0,0E0,0E0,0E0,0E0,0E0,0E0,0E0,0E0,0E0,0E0],"parents":[2147483647,0,0,1,1,2,2,3,3,4,4,5,5,6,6,7,7,8,8,9,9,10,10,11,11,12,12,13,13,14,14,15,15,16,16,17,17,18,18,19,19,20,20,21,21,22,22,23,23,24,24,25,25,26,26,27,27,28,28,29,29,30,30],"right_children":[2,4,6,8,10,12,14,16,18,20,22,24,26,28,30,32,34,36,38,40,42,44,46,48,50,52,54,56,58,60,62,-1,-1,-1,-1,-1,-1,-1,-1,-1,-1,-1,-1,-1,-1,-1,-1,-1,-1,-1,-1,-1,-1,-1,-1,-1,-1,-1,-1,-1,-1,-1,-1],"split_conditions":[5.5E1,4E0,5.9E1,8.8E1,9.125E1,7E0,4.3E1,2.5819888E0,3.772E1,9E0,7.9E1,7.358E1,7.1E1,1.62E2,3.744E1,9.3E0,7E0,3.57E1,3.556E1,3E0,2.2E1,5.0375E1,1.1E1,7.6E1,1.14166664E2,7.95E1,5.5214287E1,1.45E1,2.32E2,7E0,9.9809525E1,4.8552282E-2,-2.3490729E-2,3.281867E-2,6.2710317E-3,7.099037E-3,-1.23042725E-2,-3.089332E-2,2.4490284E-2,-1.18837925E-2,3.384516E-2,-3.6886826E-2,1.6350506E-2,4.1453864E-2,7.656505E-3,9.2329895E-3,-1.6472062E-2,-5E-2,4.5396872E-2,-5E-2,3.0471308E-2,1.4777913E-2,-5E-2,3.9696157E-2,1.0492846E-2,5E-2,-5E-2,-5E-2,5E-2,5E-2,2.9727304E-2,5E-2,5.814859E-3],"split_indices":[112,72,112,218,90,72,24,221,253,112,217,3,95,217,245,20,116,242,252,236,54,37,112,87,212,126,39,14,0,173,155,0,0,0,0,0,0,0,0,0,0,0,0,0,0,0,0,0,0,0,0,0,0,0,0,0,0,0,0,0,0,0,0],"split_type":[0,0,0,0,0,0,0,0,0,0,0,0,0,0,0,0,0,0,0,0,0,0,0,0,0,0,0,0,0,0,0,0,0,0,0,0,0,0,0,0,0,0,0,0,0,0,0,0,0,0,0,0,0,0,0,0,0,0,0,0,0,0,0],"sum_hessian":[5.70515E5,4.552115E5,1.1530351E5,1.4231956E5,3.1289194E5,8.421309E3,1.068822E5,2.2681855E4,1.196377E5,2.0438925E5,1.0850269E5,3.967652E3,4.4536562E3,7.0097234E4,3.678496E4,7.699737E3,1.4982119E4,9.62543E4,2.33834E4,5.0516355E4,1.538729E5,1.3749141E4,9.475355E4,3.208724E3,7.5892816E2,1.4778964E3,2.9757598E3,7.006751E4,2.9727055E1,2.3781117E4,1.3003845E4,7.5312183E3,1.6851878E2,8.077786E3,6.904333E3,5.8862133E4,3.7392168E4,9.670564E2,2.2416344E4,4.676637E4,3.749984E3,1.4394981E5,9.923091E3,7.793471E3,5.955669E3,2.772931E4,6.7024234E4,4.1128883E1,3.1675952E3,1.1654459E2,6.4238354E2,8.6131006E2,6.1658636E2,1.431757E3,1.5440028E3,7.005554E4,1.1972046E1,2.1075262E1,8.651793E0,4.479975E3,1.9301143E4,1.2538196E4,4.6564774E2],"tree_param":{"num_deleted":"0","num_feature":"272","num_nodes":"63","size_leaf_vector":"1"}},{"base_weights":[1.5785221E-2,-2.1886082E-1,9.232177E-1,1.0726629E-1,-4.022536E-1,4.52823E-1,9.718861E-1,2.2938184E-1,-1.4546481E-1,-8.62367E-2,-5.572659E-1,5.297653E-1,-3.903615E-1,1E0,7.9947853E-1,8.618276E-1,1.8505438E-1,-3.1056833E-1,3.1020603E-1,-2.0053926E-1,5.1819724E-1,-6.7515796E-1,1.2721021E-2,-4.3477502E-1,5.8667463E-1,-7.3571366E-1,1E0,1E0,-1E0,6.177564E-1,9.945937E-1,4.4080473E-2,-5E-2,6.5229954E-3,4.0449265E-2,-2.7703345E-2,3.7595697E-3,2.4732744E-2,-3.819308E-3,3.165934E-3,-2.298142E-2,-1.4973639E-3,3.5352908E-2,-1.042417E-2,-3.996339E-2,1.9242987E-2,-1.1127294E-2,5E-2,-4.8792887E-2,2.5235007E-2,5E-2,-5E-2,3.5236236E-2,-5E-2,5E-2,3.9266698E-2,5E-2,-5E-2,5E-2,5E-2,2.5462553E-2,5E-2,-2.9561182E-2],"categories":[],"categories_nodes":[],"categories_segments":[],"categories_sizes":[],"default_left":[0,0,0,0,0,0,0,0,0,0,0,0,0,0,0,0,0,0,0,0,0,0,0,0,0,0,0,0,0,0,0,0,0,0,0,0,0,0,0,0,0,0,0,0,0,0,0,0,0,0,0,0,0,0,0,0,0,0,0,0,0,0,0],"id":17,"left_children":[1,3,5,7,9,11,13,15,17,19,21,23,25,27,29,31,33,35,37,39,41,43,45,47,49,51,53,55,57,59,61,-1,-1,-1,-1,-1,-1,-1,-1,-1,-1,-1,-1,-1,-1,-1,-1,-1,-1,-1,-1,-1,-1,-1,-1,-1,-1,-1,-1,-1,-1,-1,-1],"loss_changes":[1.2036344E5,2.6863047E4,2.658414E3,4.989318E3,1.4082715E4,7.068059E2,1.3783516E3,3.0555469E3,3.962316E3,6.5365264E3,1.2960555E4,5.481328E2,4.946756E2,1.7867969E2,1.2890742E3,3.2658545E2,3.4695474E3,3.6313853E3,9.988827E2,5.4392646E3,1.5576594E3,9.25632E3,2.89426E3,4.5278156E2,3.980105E2,4.4830603E2,9.718025E1,1.5875E2,5.524279E1,9.093491E2,3.3808008E2,0E0,0E0,0E0,0E0,0E0,0E0,0E0,0E0,0E0,0E0,0E0,0E0,0E0,0E0,0E0,0E0,0E0,0E0,0E0,0E0,0E0,0E0,0E0,0E0,0E0,0E0,0E0,0E0,0E0,0E0,0E0,0E0],"parents":[2147483647,0,0,1,1,2,2,3,3,4,4,5,5,6,6,7,7,8,8,9,9,10,10,11,11,12,12,13,13,14,14,15,15,16,16,17,17,18,18,19,19,20,20,21,21,22,22,23,23,24,24,25,25,26,26,27,27,28,28,29,29,30,30],"right_children":[2,4,6,8,10,12,14,16,18,20,22,24,26,28,30,32,34,36,38,40,42,44,46,48,50,52,54,56,58,60,62,-1,-1,-1,-1,-1,-1,-1,-1,-1,-1,-1,-1,-1,-1,-1,-1,-1,-1,-1,-1,-1,-1,-1,-1,-1,-1,-1,-1,-1,-1,-1,-1],"split_conditions":[5.4E1,7E0,5.9E1,3.698027E-8,1.2E1,5.4E1,4.3E1,5.9E1,1E0,2E0,3.79E1,5.9E1,1.259389E1,1.62E2,3.744E1,3.9E1,1.05E1,1.045E2,1.065E2,4.75E1,1.6708334E1,8.55E1,5.3E1,3.57E1,2.125E1,3.7641666E1,-1.0833334E0,1.4125E1,2.32E2,7E0,1.8525E2,4.4080473E-2,-5E-2,6.5229954E-3,4.0449265E-2,-2.7703345E-2,3.7595697E-3,2.4732744E-2,-3.819308E-3,3.165934E-3,-2.298142E-2,-1.4973639E-3,3.5352908E-2,-1.042417E-2,-3.996339E-2,1.9242987E-2,-1.1127294E-2,5E-2,-4.8792887E-2,2.5235007E-2,5E-2,-5E-2,3.5236236E-2,-5E-2,5E-2,3.9266698E-2,5E-2,-5E-2,5E-2,5E-2,2.5462553E-2,5E-2,-2.9561182E-2],"split_indices":[112,72,112,257,112,176,24,217,230,236,243,94,44,217,243,41,62,87,23,41,191,217,18,243,194,248,137,191,0,173,213,0,0,0,0,0,0,0,0,0,0,0,0,0,0,0,0,0,0,0,0,0,0,0,0,0,0,0,0,0,0,0,0],"split_type":[0,0,0,0,0,0,0,0,0,0,0,0,0,0,0,0,0,0,0,0,0,0,0,0,0,0,0,0,0,0,0,0,0,0,0,0,0,0,0,0,0,0,0,0,0,0,0,0,0,0,0,0,0,0,0,0,0,0,0,0,0,0,0],"sum_hessian":[5.652825E5,4.4914284E5,1.1613966E5,1.6166127E5,2.874816E5,1.0890452E4,1.052492E5,1.0899618E5,5.2665082E4,9.4608625E4,1.9287295E5,9.980118E3,9.103342E2,6.887659E4,3.637261E4,7.1378516E3,1.0185833E5,3.865831E4,1.4006773E4,7.956333E4,1.5045297E4,1.598173E5,3.3055664E4,5.556653E2,9.424453E3,7.4828766E2,1.6204655E2,6.884465E4,3.194745E1,1.8834814E4,1.7537795E4,7.081062E3,5.6789734E1,9.3663875E4,8.194456E3,2.3698775E4,1.4959534E4,9.482333E3,4.52444E3,3.9419266E4,4.014406E4,3.8556396E3,1.1189657E4,3.3574395E4,1.262429E5,1.280323E4,2.0252434E4,1.4690208E2,4.087632E2,8.189195E3,1.235258E3,5.7667E2,1.7161765E2,1.2915347E1,1.491312E2,3.4658235E3,6.5378824E4,2.3384344E1,8.563106E0,3.6284744E3,1.5206341E4,1.7404674E4,1.3312125E2],"tree_param":{"num_deleted":"0","num_feature":"272","num_nodes":"63","size_leaf_vector":"1"}},{"base_weights":[1.8055765E-2,3.495939E-1,-1.8807901E-1,4.7402927E-1,-2.5778655E-2,1.24193445E-1,-3.6987984E-1,3.493228E-1,6.550886E-1,-4.8677778E-1,2.0821898E-1,2.4636252E-2,7.62455E-1,-4.6267954E-1,1.765622E-1,2.3558326E-1,5.716977E-1,5.672777E-1,8.120168E-1,2.9956424E-1,-6.376446E-1,-5.7018767E-3,5.473213E-1,-1.1119782E-1,5.175238E-1,9.270667E-1,4.9373892E-1,-1.7381346E-1,-6.203811E-1,5.619725E-2,6.4176285E-1,6.861811E-3,2.6378026E-2,3.480247E-2,1.3959743E-2,2.575779E-2,4.352804E-2,4.4760022E-2,3.0397234E-2,-3.6333043E-2,2.9384652E-2,-3.2683592E-3,-3.945557E-2,1.4333454E-2,-2.3382572E-2,2.0669628E-2,4.6034288E-2,-9.708556E-3,3.225091E-2,1.5486404E-2,4.5071036E-2,4.731694E-2,-4.979179E-2,3.3738393E-2,-3.5987755E-3,-1.6337212E-2,1.1463934E-2,-3.42012E-2,2.0142948E-2,1.1021737E-2,-1.9883718E-2,-5E-2,3.5191502E-2],"categories":[],"categories_nodes":[],"categories_segments":[],"categories_sizes":[],"default_left":[0,0,0,0,0,0,0,0,0,0,0,0,0,0,0,0,0,0,0,0,0,0,0,0,0,0,0,0,0,0,0,0,0,0,0,0,0,0,0,0,0,0,0,0,0,0,0,0,0,0,0,0,0,0,0,0,0,0,0,0,0,0,0],"id":18,"left_children":[1,3,5,7,9,11,13,15,17,19,21,23,25,27,29,31,33,35,37,39,41,43,45,47,49,51,53,55,57,59,61,-1,-1,-1,-1,-1,-1,-1,-1,-1,-1,-1,-1,-1,-1,-1,-1,-1,-1,-1,-1,-1,-1,-1,-1,-1,-1,-1,-1,-1,-1,-1,-1],"loss_changes":[3.8431895E4,1.0070402E4,1.9685793E4,3.6558008E3,5.790386E3,8.107738E3,1.1113707E4,2.4250117E3,9.0953906E2,2.1442144E3,2.5828462E3,7.389967E3,7.6110547E2,8.534379E3,1.7815092E3,1.8215657E3,1.179959E3,6.6896484E2,4.016289E2,8.608507E2,1.3143618E3,2.9489666E3,6.883218E2,5.42963E3,1.9020576E3,3.9655176E2,6.700613E2,4.0785898E3,7.8921445E3,1.8843676E3,7.296787E2,0E0,0E0,0E0,0E0,0E0,0E0,0E0,0E0,0E0,0E0,0E0,0E0,0E0,0E0,0E0,0E0,0E0,0E0,0E0,0E0,0E0,0E0,0E0,0E0,0E0,0E0,0E0,0E0,0E0,0E0,0E0,0E0],"parents":[2147483647,0,0,1,1,2,2,3,3,4,4,5,5,6,6,7,7,8,8,9,9,10,10,11,11,12,12,13,13,14,14,15,15,16,16,17,17,18,18,19,19,20,20,21,21,22,22,23,23,24,24,25,25,26,26,27,27,28,28,29,29,30,30],"right_children":[2,4,6,8,10,12,14,16,18,20,22,24,26,28,30,32,34,36,38,40,42,44,46,48,50,52,54,56,58,60,62,-1,-1,-1,-1,-1,-1,-1,-1,-1,-1,-1,-1,-1,-1,-1,-1,-1,-1,-1,-1,-1,-1,-1,-1,-1,-1,-1,-1,-1,-1,-1,-1],"split_conditions":[6E0,9.99E2,9.99E2,2.01E1,1.4E1,4.4E1,2.2782608E1,3.772E1,2.5375E1,9.96E1,1.025E2,1.33E1,6.35E1,4.9275E1,3.7635E1,1.51E0,1.05E1,3.822E1,6.75E1,3.65E1,7.4854164E1,1.13E2,1.26E2,1E1,3E0,1.02E2,9.8458336E1,8.378378E-1,1.8E1,6.4E1,8.9E1,6.861811E-3,2.6378026E-2,3.480247E-2,1.3959743E-2,2.575779E-2,4.352804E-2,4.4760022E-2,3.0397234E-2,-3.6333043E-2,2.9384652E-2,-3.2683592E-3,-3.945557E-2,1.4333454E-2,-2.3382572E-2,2.0669628E-2,4.6034288E-2,-9.708556E-3,3.225091E-2,1.5486404E-2,4.5071036E-2,4.731694E-2,-4.979179E-2,3.3738393E-2,-3.5987755E-3,-1.6337212E-2,1.1463934E-2,-3.42012E-2,2.0142948E-2,1.1021737E-2,-1.9883718E-2,-5E-2,3.5191502E-2],"split_indices":[72,176,5,191,82,5,191,246,193,215,86,266,38,37,250,26,109,245,128,244,91,78,86,54,236,33,154,241,51,39,75,0,0,0,0,0,0,0,0,0,0,0,0,0,0,0,0,0,0,0,0,0,0,0,0,0,0,0,0,0,0,0,0],"split_type":[0,0,0,0,0,0,0,0,0,0,0,0,0,0,0,0,0,0,0,0,0,0,0,0,0,0,0,0,0,0,0,0,0,0,0,0,0,0,0,0,0,0,0,0,0,0,0,0,0,0,0,0,0,0,0,0,0,0,0,0,0,0,0],"sum_hessian":[5.623484E5,2.1559467E5,3.4675372E5,1.6191866E5,5.367601E4,1.2759274E5,2.1916097E5,9.5881914E4,6.6036734E4,1.807175E4,3.5604266E4,1.1037698E5,1.7215762E4,1.8734517E5,3.1815799E4,6.34373E4,3.2444617E4,4.2346117E4,2.3690617E4,2.9089336E3,1.5162815E4,2.1832398E4,1.3771866E4,8.653086E4,2.3846121E4,1.06743545E4,6.541408E3,6.616011E4,1.2118506E5,2.5276848E4,6.5389526E3,4.7454586E4,1.5982714E4,2.2765111E4,9.679506E3,3.613815E4,6.207969E3,1.6827871E4,6.862745E3,6.3735425E2,2.2715793E3,3.1736072E3,1.1989209E4,1.3370499E4,8.461898E3,1.0137553E4,3.6343135E3,7.797595E4,8.554908E3,1.5472807E4,8.373314E3,1.0568937E4,1.05418396E2,4.955464E3,1.5859441E3,4.7963305E4,1.8196807E4,1.14089336E5,7.095723E3,1.8560926E4,6.7159224E3,2.1610213E2,6.32285E3],"tree_param":{"num_deleted":"0","num_feature":"272","num_nodes":"63","size_leaf_vector":"1"}},{"base_weights":[1.9927679E-2,-2.1655063E-1,8.3270913E-1,1.11406974E-1,-3.6577556E-1,3.9004478E-1,9.3192345E-1,5.2476954E-1,3.3020504E-2,-6.8756975E-2,-5.1380074E-1,1.62594E-1,7.575449E-1,1E0,7.63079E-1,8.4028983E-1,3.7259197E-1,-4.580113E-2,3.6396956E-1,-1.4802168E-1,6.211283E-1,-6.1419237E-1,4.9771868E-2,5.939682E-1,-1.2875554E-1,2.3873101E-1,8.5207266E-1,1E0,3.9370644E-1,5.990246E-1,9.447458E-1,4.3656386E-2,-2.954245E-2,3.0937925E-2,2.3438453E-3,2.639011E-2,-5.1861075E-3,2.8831894E-2,1.0183641E-2,4.9924264E-3,-1.7402446E-2,1.0616112E-2,4.3189157E-2,-3.531104E-2,-5.168501E-3,1.8321212E-2,-6.9408193E-3,2.0325564E-2,5E-2,3.417206E-2,-1.5681747E-2,-1.1268961E-2,5E-2,4.342514E-2,-5E-2,5E-2,2.0074233E-2,4.7870502E-2,-5E-2,5E-2,2.4661241E-2,5E-2,2.9583326E-2],"categories":[],"categories_nodes":[],"categories_segments":[],"categories_sizes":[],"default_left":[0,0,0,0,0,0,0,0,0,0,0,0,0,0,0,0,0,0,0,0,0,0,0,0,0,0,0,0,0,0,0,0,0,0,0,0,0,0,0,0,0,0,0,0,0,0,0,0,0,0,0,0,0,0,0,0,0,0,0,0,0,0,0],"id":19,"left_children":[1,3,5,7,9,11,13,15,17,19,21,23,25,27,29,31,33,35,37,39,41,43,45,47,49,51,53,55,57,59,61,-1,-1,-1,-1,-1,-1,-1,-1,-1,-1,-1,-1,-1,-1,-1,-1,-1,-1,-1,-1,-1,-1,-1,-1,-1,-1,-1,-1,-1,-1,-1,-1],"loss_changes":[1.07793695E5,2.1260777E4,5.550828E3,4.401989E3,1.3127156E4,1.9344539E3,1.5345156E3,1.0394941E3,2.9790593E3,5.430686E3,1.1274094E4,1.79698E3,4.337124E2,1.4788281E2,1.068791E3,3.316211E2,1.1715104E3,3.064433E3,7.48749E2,4.416489E3,1.01506836E3,7.95109E3,1.7993223E3,5.790563E2,1.2817467E3,6.2668896E2,3.1578516E2,1.25921875E2,4.5986053E2,8.7331934E2,3.766377E2,0E0,0E0,0E0,0E0,0E0,0E0,0E0,0E0,0E0,0E0,0E0,0E0,0E0,0E0,0E0,0E0,0E0,0E0,0E0,0E0,0E0,0E0,0E0,0E0,0E0,0E0,0E0,0E0,0E0,0E0,0E0,0E0],"parents":[2147483647,0,0,1,1,2,2,3,3,4,4,5,5,6,6,7,7,8,8,9,9,10,10,11,11,12,12,13,13,14,14,15,15,16,16,17,17,18,18,19,19,20,20,21,21,22,22,23,23,24,24,25,25,26,26,27,27,28,28,29,29,30,30],"right_children":[2,4,6,8,10,12,14,16,18,20,22,24,26,28,30,32,34,36,38,40,42,44,46,48,50,52,54,56,58,60,62,-1,-1,-1,-1,-1,-1,-1,-1,-1,-1,-1,-1,-1,-1,-1,-1,-1,-1,-1,-1,-1,-1,-1,-1,-1,-1,-1,-1,-1,-1,-1,-1],"split_conditions":[5E1,4E0,5.9E1,8.8E1,1.2E1,3.767E1,4.3E1,1.4142135E0,3.772E1,3E0,3.789E1,7E0,2.786874E-1,1.983278E1,3.744E1,9.3E0,8E0,5.5E1,8.6E0,4.4E1,8.7E1,3E0,4.9E1,9.4E1,6.6125E1,2.81875E1,7.25E1,3.05E0,3.3990544E-1,7E0,8.1E1,4.3656386E-2,-2.954245E-2,3.0937925E-2,2.3438453E-3,2.639011E-2,-5.1861075E-3,2.8831894E-2,1.0183641E-2,4.9924264E-3,-1.7402446E-2,1.0616112E-2,4.3189157E-2,-3.531104E-2,-5.168501E-3,1.8321212E-2,-6.9408193E-3,2.0325564E-2,5E-2,3.417206E-2,-1.5681747E-2,-1.1268961E-2,5E-2,4.342514E-2,-5E-2,5E-2,2.0074233E-2,4.7870502E-2,-5E-2,5E-2,2.4661241E-2,5E-2,2.9583326E-2],"split_indices":[112,72,112,218,112,243,24,221,253,236,246,72,256,45,243,20,116,95,109,40,88,236,18,33,126,57,41,138,256,270,128,0,0,0,0,0,0,0,0,0,0,0,0,0,0,0,0,0,0,0,0,0,0,0,0,0,0,0,0,0,0,0,0],"split_type":[0,0,0,0,0,0,0,0,0,0,0,0,0,0,0,0,0,0,0,0,0,0,0,0,0,0,0,0,0,0,0,0,0,0,0,0,0,0,0,0,0,0,0,0,0,0,0,0,0,0,0,0,0,0,0,0,0,0,0,0,0,0,0],"sum_hessian":[5.6082425E5,4.3442834E5,1.2639595E5,1.3585488E5,2.9857347E5,2.3143146E4,1.03252805E5,2.165482E4,1.14200055E5,9.9308445E4,1.99265E5,1.4296371E4,8.846774E3,6.737309E4,3.587971E4,7.044483E3,1.4610338E4,9.223375E4,2.196631E4,8.907492E4,1.0233521E4,1.69136E5,3.0129012E4,5.762836E3,8.533535E3,1.3640015E3,7.482773E3,6.6969086E4,4.0401178E2,1.8856037E4,1.7023674E4,6.8868525E3,1.5763075E2,8.320803E3,6.2895347E3,8.458586E3,8.3775164E4,9.43979E3,1.252652E4,3.9780336E4,4.929459E4,3.8124597E3,6.421062E3,1.4331616E5,2.5819846E4,1.124573E4,1.8883281E4,4.3435977E3,1.4192384E3,1.581801E3,6.951734E3,9.4385364E2,4.201478E2,7.4424746E3,4.029826E1,6.661577E4,3.533089E2,3.2461072E2,7.940104E1,3.6473074E3,1.520873E4,1.4448059E4,2.5756147E3],"tree_param":{"num_deleted":"0","num_feature":"272","num_nodes":"63","size_leaf_vector":"1"}},{"base_weights":[1.6668694E-2,-1.8493764E-1,8.855992E-1,-3.641928E-1,1.1039327E-1,9.7825074E-1,7.08445E-1,1.542488E-1,-4.3658975E-1,2.730412E-2,4.940618E-1,7.555847E-1,9.9976355E-1,5.536477E-1,9.221488E-1,3.6313415E-1,-2.5592712E-1,-4.9718928E-1,6.884286E-2,4.6021947E-1,-4.7764804E-2,-8.355142E-2,5.7926995E-1,8.130311E-1,-1E0,-1E0,1E0,9.853566E-1,4.5831114E-1,9.8463213E-1,5.633242E-1,1.0528737E-2,3.4089264E-2,-1.9863864E-2,2.5799407E-2,-9.73742E-3,-3.2169532E-2,2.9898265E-2,-1.7202264E-3,3.843009E-2,1.6171461E-2,-6.1412253E-3,1.5199914E-2,1.4745289E-2,-2.619036E-2,4.0089246E-2,2.0709572E-2,4.993932E-2,2.519745E-2,5E-2,-5E-2,-5E-2,5E-2,3.4887932E-2,5E-2,5E-2,-3.3740852E-2,4.8853725E-2,1.8857209E-2,4.9656354E-2,-5E-2,-5E-2,3.4305315E-2],"categories":[],"categories_nodes":[],"categories_segments":[],"categories_sizes":[],"default_left":[0,0,0,0,0,0,0,0,0,0,0,0,0,0,0,0,0,0,0,0,0,0,0,0,0,0,0,0,0,0,0,0,0,0,0,0,0,0,0,0,0,0,0,0,0,0,0,0,0,0,0,0,0,0,0,0,0,0,0,0,0,0,0],"id":20,"left_children":[1,3,5,7,9,11,13,15,17,19,21,23,25,27,29,31,33,35,37,39,41,43,45,47,49,51,53,55,57,59,61,-1,-1,-1,-1,-1,-1,-1,-1,-1,-1,-1,-1,-1,-1,-1,-1,-1,-1,-1,-1,-1,-1,-1,-1,-1,-1,-1,-1,-1,-1,-1,-1],"loss_changes":[9.746375E4,2.3906656E4,1.7190547E3,1.0547617E4,5.437452E3,3.287578E2,1.1898516E3,2.950421E3,7.5526133E3,4.556478E3,1.4944473E3,7.1332983E2,2.6554688E2,8.585171E2,3.3831152E2,1.1090085E3,1.2680156E3,9.735801E3,1.4422722E3,8.7377E2,3.1548755E3,6.506611E2,9.716094E2,3.384646E2,3.304776E2,7.585799E1,2.0997266E2,2.5640674E2,7.195222E2,3.3208984E2,6.035533E2,0E0,0E0,0E0,0E0,0E0,0E0,0E0,0E0,0E0,0E0,0E0,0E0,0E0,0E0,0E0,0E0,0E0,0E0,0E0,0E0,0E0,0E0,0E0,0E0,0E0,0E0,0E0,0E0,0E0,0E0,0E0,0E0],"parents":[2147483647,0,0,1,1,2,2,3,3,4,4,5,5,6,6,7,7,8,8,9,9,10,10,11,11,12,12,13,13,14,14,15,15,16,16,17,17,18,18,19,19,20,20,21,21,22,22,23,23,24,24,25,25,26,26,27,27,28,28,29,29,30,30],"right_children":[2,4,6,8,10,12,14,16,18,20,22,24,26,28,30,32,34,36,38,40,42,44,46,48,50,52,54,56,58,60,62,-1,-1,-1,-1,-1,-1,-1,-1,-1,-1,-1,-1,-1,-1,-1,-1,-1,-1,-1,-1,-1,-1,-1,-1,-1,-1,-1,-1,-1,-1,-1,-1],"split_conditions":[5.7E1,4E0,4.3E1,7E0,2.56E1,1.5E1,3.744E1,3.698027E-8,3.811E1,7E0,4.413E1,8.233E1,4.85E1,7E0,8.1E1,2.3E1,3.7E1,1.1E1,7.2608696E1,5.833E1,3.7875E1,3.3E1,9.2E1,5E1,1E0,7.8722224E0,5.9E1,1.0277778E0,4.5E1,8.2E0,2.494925E-7,1.0528737E-2,3.4089264E-2,-1.9863864E-2,2.5799407E-2,-9.73742E-3,-3.2169532E-2,2.9898265E-2,-1.7202264E-3,3.843009E-2,1.6171461E-2,-6.1412253E-3,1.5199914E-2,1.4745289E-2,-2.619036E-2,4.0089246E-2,2.0709572E-2,4.993932E-2,2.519745E-2,5E-2,-5E-2,-5E-2,5E-2,3.4887932E-2,5E-2,5E-2,-3.3740852E-2,4.8853725E-2,1.8857209E-2,4.9656354E-2,-5E-2,-5E-2,3.4305315E-2],"split_indices":[112,147,24,116,190,191,246,257,244,5,3,128,159,173,128,24,112,112,91,128,249,3,216,42,187,50,112,70,42,17,165,0,0,0,0,0,0,0,0,0,0,0,0,0,0,0,0,0,0,0,0,0,0,0,0,0,0,0,0,0,0,0,0],"split_type":[0,0,0,0,0,0,0,0,0,0,0,0,0,0,0,0,0,0,0,0,0,0,0,0,0,0,0,0,0,0,0,0,0,0,0,0,0,0,0,0,0,0,0,0,0,0,0,0,0,0,0,0,0,0,0,0,0,0,0,0,0,0,0],"sum_hessian":[5.563555E5,4.515818E5,1.0477371E5,2.810154E5,1.7056642E5,6.879134E4,3.5982363E4,3.4433375E4,2.4658202E5,1.4020419E5,3.0362238E4,6.063892E3,6.2727453E4,2.0869232E4,1.5113131E4,2.281485E4,1.1618527E4,2.201829E5,2.6399117E4,2.0718342E4,1.1948584E5,3.903181E3,2.6459059E4,5.9029604E3,1.6093181E2,3.9961548E1,6.2687492E4,3.7733179E3,1.7095914E4,1.2870249E4,2.2428818E3,1.5429423E4,7.3854263E3,9.820686E3,1.7978413E3,7.17529E4,1.4843E5,4.3094165E3,2.20897E4,6.364802E3,1.4353541E4,9.847398E4,2.1011865E4,2.099079E3,1.8041019E3,1.1267437E4,1.5191621E4,3.6856743E3,2.2172861E3,5.5382214E1,1.055496E2,2.5350534E1,1.4611014E1,2.3084683E3,6.0379023E4,3.6822627E3,9.105514E1,2.3114817E3,1.4784433E4,1.2844613E4,2.5635685E1,1.0225027E2,2.1406316E3],"tree_param":{"num_deleted":"0","num_feature":"272","num_nodes":"63","size_leaf_vector":"1"}},{"base_weights":[1.7143961E-2,-1.9799995E-1,7.7652717E-1,-5.3520834E-1,-5.8334883E-2,3.6559317E-1,8.7063944E-1,-1.4961457E-1,-7.0376563E-1,-1.4431028E-1,3.1857023E-1,6.3970226E-1,9.0569586E-2,9.614028E-1,7.284536E-1,-2.5003666E-1,2.5708675E-1,-7.827166E-1,-1.8326764E-1,-2.2178502E-1,3.0500147E-1,6.097559E-1,1.0870294E-1,6.726095E-1,-8.5186803E-1,-7.625732E-2,6.734607E-1,7.636291E-1,9.822726E-1,6.2906533E-1,1E0,-2.9202574E-3,-2.5452202E-2,-1.2404831E-3,3.38698E-2,-4.2092673E-2,-1.1429827E-2,4.2103965E-2,-1.531135E-2,-1.5138698E-2,1.1329994E-2,6.2168078E-3,2.6872082E-2,3.8588345E-2,2.004314E-2,-1.336536E-2,1.3516818E-2,2.6908977E-2,4.983708E-2,-5E-2,5E-2,-1.4190516E-2,2.2694154E-2,3.872594E-2,-4.473444E-2,4.111169E-2,-5E-2,4.9348667E-2,-1.2345144E-2,4.82256E-2,2.7032077E-2,7.367109E-3,5E-2],"categories":[],"categories_nodes":[],"categories_segments":[],"categories_sizes":[],"default_left":[0,0,0,0,0,0,0,0,0,0,0,0,0,0,0,0,0,0,0,0,0,0,0,0,0,0,0,0,0,0,0,0,0,0,0,0,0,0,0,0,0,0,0,0,0,0,0,0,0,0,0,0,0,0,0,0,0,0,0,0,0,0,0],"id":21,"left_children":[1,3,5,7,9,11,13,15,17,19,21,23,25,27,29,31,33,35,37,39,41,43,45,47,49,51,53,55,57,59,61,-1,-1,-1,-1,-1,-1,-1,-1,-1,-1,-1,-1,-1,-1,-1,-1,-1,-1,-1,-1,-1,-1,-1,-1,-1,-1,-1,-1,-1,-1,-1,-1],"loss_changes":[9.032156E4,2.0288695E4,4.7198125E3,8.200199E3,9.871282E3,1.7146011E3,1.2808672E3,1.5675056E3,3.6075508E3,8.634576E3,3.4576367E3,5.5969385E2,1.1042031E3,2.4942188E2,1.1640742E3,1.5276582E3,9.0052716E2,2.4977383E3,1.4581985E3,7.682885E3,1.5318892E3,8.017373E2,1.9985815E3,4.85125E2,5.159209E2,9.715973E2,4.0111536E2,6.977781E2,3.169961E2,8.657539E2,2.2231738E2,0E0,0E0,0E0,0E0,0E0,0E0,0E0,0E0,0E0,0E0,0E0,0E0,0E0,0E0,0E0,0E0,0E0,0E0,0E0,0E0,0E0,0E0,0E0,0E0,0E0,0E0,0E0,0E0,0E0,0E0,0E0,0E0],"parents":[2147483647,0,0,1,1,2,2,3,3,4,4,5,5,6,6,7,7,8,8,9,9,10,10,11,11,12,12,13,13,14,14,15,15,16,16,17,17,18,18,19,19,20,20,21,21,22,22,23,23,24,24,25,25,26,26,27,27,28,28,29,29,30,30],"right_children":[2,4,6,8,10,12,14,16,18,20,22,24,26,28,30,32,34,36,38,40,42,44,46,48,50,52,54,56,58,60,62,-1,-1,-1,-1,-1,-1,-1,-1,-1,-1,-1,-1,-1,-1,-1,-1,-1,-1,-1,-1,-1,-1,-1,-1,-1,-1,-1,-1,-1,-1,-1,-1],"split_conditions":[5E1,2E0,5.9E1,9E0,1.0107527E0,1.9E1,4.6E1,1E0,3.794E1,1.65E0,2.1213202E0,5.6E1,3.7555E1,1.5166667E1,3.775E1,4.95E1,1.8166666E1,3.4E1,1.275E1,3.772E1,1.12E1,7.4E1,1.3E1,3.78E1,3.5E1,2.1727272E1,1.4929167E2,8.233E1,1.983278E1,7E0,6.796559E-8,-2.9202574E-3,-2.5452202E-2,-1.2404831E-3,3.38698E-2,-4.2092673E-2,-1.1429827E-2,4.2103965E-2,-1.531135E-2,-1.5138698E-2,1.1329994E-2,6.2168078E-3,2.6872082E-2,3.8588345E-2,2.004314E-2,-1.336536E-2,1.3516818E-2,2.6908977E-2,4.983708E-2,-5E-2,5E-2,-1.4190516E-2,2.2694154E-2,3.872594E-2,-4.473444E-2,4.111169E-2,-5E-2,4.9348667E-2,-1.2345144E-2,4.82256E-2,2.7032077E-2,7.367109E-3,5E-2],"split_indices":[112,147,112,112,241,173,82,236,244,26,45,21,250,191,249,40,190,169,188,253,266,217,195,245,9,190,213,128,45,173,165,0,0,0,0,0,0,0,0,0,0,0,0,0,0,0,0,0,0,0,0,0,0,0,0,0,0,0,0,0,0,0,0],"split_type":[0,0,0,0,0,0,0,0,0,0,0,0,0,0,0,0,0,0,0,0,0,0,0,0,0,0,0,0,0,0,0,0,0,0,0,0,0,0,0,0,0,0,0,0,0,0,0,0,0,0,0,0,0,0,0,0,0,0,0,0,0,0,0],"sum_hessian":[5.528405E5,4.3079188E5,1.2204864E5,1.2616802E5,3.0462384E5,2.274392E4,9.930473E4,3.8377363E4,8.779066E4,2.4804355E5,5.6580316E4,1.1390233E4,1.1353686E4,6.0609383E4,3.869534E4,3.0778072E4,7.5992915E3,7.622768E4,1.1562981E4,2.115641E5,3.647945E4,2.3698012E4,3.2882305E4,1.1144902E4,2.4533128E2,8.827944E3,2.525741E3,5.788843E3,5.4820543E4,2.9204395E4,9.490945E3,1.7690582E4,1.3087488E4,4.5491626E3,3.0501287E3,6.8876516E4,7.3511626E3,1.237525E3,1.0325456E4,1.7919717E5,3.2366924E4,2.0526588E4,1.5952861E4,1.3345194E4,1.0352817E4,9.885312E3,2.2996994E4,7.8795938E3,3.2653086E3,1.8243687E2,6.2894413E1,6.344501E3,2.4834438E3,2.3733018E3,1.5243921E2,5.6328594E3,1.5598322E2,5.4611887E4,2.086549E2,6.0902744E3,2.311412E4,3.061656E2,9.184779E3],"tree_param":{"num_deleted":"0","num_feature":"272","num_nodes":"63","size_leaf_vector":"1"}},{"base_weights":[1.8102188E-2,3.126504E-1,-1.9391632E-1,4.9510583E-1,1.3128902E-1,-2.82903E-1,2.4986194E-1,4.0756625E-1,7.475421E-1,5.917435E-2,8.273845E-1,-3.6413828E-1,1.0598494E-1,1.3044377E-1,5.3941625E-1,6.4066887E-1,2.960322E-1,5.9059566E-1,8.762377E-1,-4.5942847E-2,4.7616425E-1,8.443128E-1,-5E-2,-4.0579548E-1,4.2562637E-1,1E0,6.6837266E-2,6.0100388E-2,6.4031947E-1,6.653444E-1,1.7569242E-1,4.1270334E-2,2.6318839E-2,1.6248738E-2,-5E-2,3.0870585E-2,-5E-2,4.4193145E-2,-5E-2,-5.3443243E-3,4.0338527E-2,-3.234315E-2,2.6347596E-2,4.261744E-2,-5E-2,-2.3014065E-2,2.7942627E-3,1.6011149E-2,5E-2,-5E-2,5E-2,1.0475337E-2,-1.0425412E-2,-2.1420656E-2,7.6167407E-3,3.629551E-2,-2.3731764E-2,-2.499293E-2,3.521619E-2,-1.533579E-3,4.9014542E-2],"categories":[],"categories_nodes":[],"categories_segments":[],"categories_sizes":[],"default_left":[0,0,0,0,0,0,0,0,0,0,0,0,0,0,0,0,0,0,0,0,0,0,0,0,0,0,0,0,0,0,0,0,0,0,0,0,0,0,0,0,0,0,0,0,0,0,0,0,0,0,0,0,0,0,0,0,0,0,0,0,0],"id":22,"left_children":[1,3,5,7,9,11,13,15,17,19,21,23,25,27,29,31,33,35,37,39,41,43,-1,45,47,49,51,53,55,57,59,-1,-1,-1,-1,-1,-1,-1,-1,-1,-1,-1,-1,-1,-1,-1,-1,-1,-1,-1,-1,-1,-1,-1,-1,-1,-1,-1,-1,-1,-1],"loss_changes":[3.4327996E4,7.612957E3,1.2622092E4,2.5340781E3,5.7919297E3,8.410867E3,1.8459309E3,2.2138506E3,5.9592773E2,4.5827827E3,5.191909E2,7.245703E3,1.829342E3,1.3556824E3,7.1387646E2,5.814502E2,2.5979893E3,5.734658E2,2.689502E2,4.339489E3,1.2009233E3,2.5149414E2,0E0,5.2624414E3,8.385388E2,3.1831787E2,1.7414131E3,1.4967803E3,4.376538E2,5.262554E2,6.659084E2,0E0,0E0,0E0,0E0,0E0,0E0,0E0,0E0,0E0,0E0,0E0,0E0,0E0,0E0,0E0,0E0,0E0,0E0,0E0,0E0,0E0,0E0,0E0,0E0,0E0,0E0,0E0,0E0,0E0,0E0],"parents":[2147483647,0,0,1,1,2,2,3,3,4,4,5,5,6,6,7,7,8,8,9,9,10,10,11,11,12,12,13,13,14,14,15,15,16,16,17,17,18,18,19,19,20,20,21,21,23,23,24,24,25,25,26,26,27,27,28,28,29,29,30,30],"right_children":[2,4,6,8,10,12,14,16,18,20,22,24,26,28,30,32,34,36,38,40,42,44,-1,46,48,50,52,54,56,58,60,-1,-1,-1,-1,-1,-1,-1,-1,-1,-1,-1,-1,-1,-1,-1,-1,-1,-1,-1,-1,-1,-1,-1,-1,-1,-1,-1,-1,-1,-1],"split_conditions":[9.99E2,9.99E2,9.6428573E-1,3.756E1,4.8E1,2.1931818E1,1.9594095E0,9.55E1,1.1475906E0,3.772E1,1.4E2,2.3E1,8.675E1,1.75E0,5.9625E1,3.9E1,6.1E1,3.6E0,1.631E1,4.6E1,3.565E1,4.45E1,-5E-2,1.75E0,2.55E0,6.05E1,9.5E0,-3.0303031E-2,1.1628125E2,7.046154E1,2.6708334E1,4.1270334E-2,2.6318839E-2,1.6248738E-2,-5E-2,3.0870585E-2,-5E-2,4.4193145E-2,-5E-2,-5.3443243E-3,4.0338527E-2,-3.234315E-2,2.6347596E-2,4.261744E-2,-5E-2,-2.3014065E-2,2.7942627E-3,1.6011149E-2,5E-2,-5E-2,5E-2,1.0475337E-2,-1.0425412E-2,-2.1420656E-2,7.6167407E-3,3.629551E-2,-2.3731764E-2,-2.499293E-2,3.521619E-2,-1.533579E-3,4.9014542E-2],"split_indices":[116,18,241,253,116,191,165,218,165,253,217,54,214,26,39,42,21,115,263,79,252,53,0,26,138,95,109,50,91,91,190,0,0,0,0,0,0,0,0,0,0,0,0,0,0,0,0,0,0,0,0,0,0,0,0,0,0,0,0,0,0],"split_type":[0,0,0,0,0,0,0,0,0,0,0,0,0,0,0,0,0,0,0,0,0,0,0,0,0,0,0,0,0,0,0,0,0,0,0,0,0,0,0,0,0,0,0,0,0,0,0,0,0,0,0,0,0,0,0,0,0,0,0,0,0],"sum_hessian":[5.496886E5,2.3006656E5,3.196221E5,1.146865E5,1.1538007E5,2.6623656E5,5.338553E4,8.5158086E4,2.9528414E4,1.0454991E5,1.0830163E4,2.2023205E5,4.60045E4,3.779822E4,1.5587314E4,2.7558002E4,5.7600082E4,1.3306499E4,1.6221915E4,8.350131E4,2.1048598E4,1.0785176E4,4.498819E1,2.091981E5,1.1033949E4,1.6771161E3,4.4327383E4,3.32167E4,4.581518E3,1.157797E4,4.009345E3,1.0530551E4,1.702745E4,5.659154E4,1.0085422E3,1.3088486E4,2.180124E2,1.6166916E4,5.4998806E1,7.793234E4,5.5689683E3,9.102059E2,2.0138393E4,1.0765379E4,1.9796417E1,1.8711545E5,2.2082652E4,9.693991E3,1.3399574E3,4.2315323E1,1.6348008E3,2.9198504E4,1.5128879E4,5.274899E3,2.79418E4,4.255211E3,3.2630704E2,3.7439575E2,1.1203574E4,3.1916978E3,8.176471E2],"tree_param":{"num_deleted":"0","num_feature":"272","num_nodes":"61","size_leaf_vector":"1"}},{"base_weights":[2.0712312E-2,-1.7899719E-1,7.5898904E-1,-5.018095E-1,-4.701023E-2,3.6191896E-1,8.386394E-1,-1.3910379E-1,-6.5916234E-1,-1.2394471E-1,3.317604E-1,1.5528965E-1,6.945361E-1,9.282559E-1,6.717563E-1,-2.0316608E-1,4.7000444E-1,-7.297291E-1,-8.63843E-2,-2.0462404E-1,2.877629E-1,3.7606984E-1,-4.6738404E-1,6.63823E-1,-8.035834E-2,7.3586786E-1,-5E-2,1E0,8.73252E-1,5.262081E-1,8.7160623E-1,2.3385312E-4,-1.863218E-2,-3.4088112E-2,3.1910654E-2,-1.9634014E-2,-4.1315313E-2,3.7147146E-2,-1.154127E-2,1.786219E-2,-1.3215928E-2,-2.3665627E-2,1.6462294E-2,1.3341094E-2,3.0643394E-2,-4.2140584E-2,5.3921416E-3,3.6095146E-2,-4.972119E-2,2.694031E-2,-1.1621351E-2,2.1131543E-2,4.61691E-2,5E-2,-5E-2,4.4298973E-2,5.572129E-3,4.704477E-2,2.1730958E-2,4.5265652E-2,1.1545921E-2],"categories":[],"categories_nodes":[],"categories_segments":[],"categories_sizes":[],"default_left":[0,0,0,0,0,0,0,0,0,0,0,0,0,0,0,0,0,0,0,0,0,0,0,0,0,0,0,0,0,0,0,0,0,0,0,0,0,0,0,0,0,0,0,0,0,0,0,0,0,0,0,0,0,0,0,0,0,0,0,0,0],"id":23,"left_children":[1,3,5,7,9,11,13,15,17,19,21,23,25,27,29,31,33,35,37,39,41,43,45,47,49,51,-1,53,55,57,59,-1,-1,-1,-1,-1,-1,-1,-1,-1,-1,-1,-1,-1,-1,-1,-1,-1,-1,-1,-1,-1,-1,-1,-1,-1,-1,-1,-1,-1,-1],"loss_changes":[8.095563E4,1.8413336E4,3.697E3,7.157912E3,8.938881E3,1.3424438E3,1.4556094E3,1.480897E3,3.5354336E3,8.46899E3,1.8339453E3,1.4441003E3,7.058508E2,3.0398438E2,9.8921094E2,1.2095571E3,7.001584E2,2.5346445E3,1.1496156E3,7.1504854E3,1.319126E3,1.2691938E3,5.877082E2,3.6822876E2,7.7553577E2,4.3233325E2,0E0,1.8605273E2,3.807578E2,7.4738525E2,3.093789E2,0E0,0E0,0E0,0E0,0E0,0E0,0E0,0E0,0E0,0E0,0E0,0E0,0E0,0E0,0E0,0E0,0E0,0E0,0E0,0E0,0E0,0E0,0E0,0E0,0E0,0E0,0E0,0E0,0E0,0E0],"parents":[2147483647,0,0,1,1,2,2,3,3,4,4,5,5,6,6,7,7,8,8,9,9,10,10,11,11,12,12,13,13,14,14,15,15,16,16,17,17,18,18,19,19,20,20,21,21,22,22,23,23,24,24,25,25,27,27,28,28,29,29,30,30],"right_children":[2,4,6,8,10,12,14,16,18,20,22,24,26,28,30,32,34,36,38,40,42,44,46,48,50,52,-1,54,56,58,60,-1,-1,-1,-1,-1,-1,-1,-1,-1,-1,-1,-1,-1,-1,-1,-1,-1,-1,-1,-1,-1,-1,-1,-1,-1,-1,-1,-1,-1,-1],"split_conditions":[5.1E1,2E0,5.9E1,9E0,1.51E0,3.767E1,4.3E1,2E0,3.79E1,3.772E1,1.35E2,7E0,5.6E1,1.015E2,3.744E1,1.01E2,6.3E1,7.2E1,9.4E1,1.04E2,3.57E1,1.37E1,1.12E1,6.794606E-1,6.7125E1,-9.999996E-2,-5E-2,7.4632435E0,2.75E0,7E0,9.9791664E1,2.3385312E-4,-1.863218E-2,-3.4088112E-2,3.1910654E-2,-1.9634014E-2,-4.1315313E-2,3.7147146E-2,-1.154127E-2,1.786219E-2,-1.3215928E-2,-2.3665627E-2,1.6462294E-2,1.3341094E-2,3.0643394E-2,-4.2140584E-2,5.3921416E-3,3.6095146E-2,-4.972119E-2,2.694031E-2,-1.1621351E-2,2.1131543E-2,4.61691E-2,5E-2,-5E-2,4.4298973E-2,5.572129E-3,4.704477E-2,2.1730958E-2,4.5265652E-2,1.1545921E-2],"split_indices":[112,147,112,112,26,243,24,236,243,253,216,173,21,218,246,216,97,125,218,209,252,266,266,256,126,105,0,163,138,173,155,0,0,0,0,0,0,0,0,0,0,0,0,0,0,0,0,0,0,0,0,0,0,0,0,0,0,0,0,0,0],"split_type":[0,0,0,0,0,0,0,0,0,0,0,0,0,0,0,0,0,0,0,0,0,0,0,0,0,0,0,0,0,0,0,0,0,0,0,0,0,0,0,0,0,0,0,0,0,0,0,0,0,0,0,0,0,0,0,0,0,0,0,0,0],"sum_hessian":[5.490699E5,4.321663E5,1.1690353E5,1.2541786E5,3.0674847E5,1.953314E4,9.737039E4,3.7947953E4,8.746991E4,2.5496217E5,5.178629E4,1.2049306E4,7.4838354E3,6.3347906E4,3.402249E4,3.433724E4,3.6107158E3,7.787533E4,9.594579E3,2.1318616E5,4.1776027E4,4.9066285E4,2.7200044E3,3.8148853E3,8.234421E3,7.366226E3,1.1760923E2,2.4068209E4,3.9279695E4,1.968777E4,1.4334719E4,1.5423363E4,1.8913875E4,4.59736E2,3.15098E3,1.7345521E4,6.0529805E4,1.4225693E3,8.17201E3,2.0473809E4,1.9271234E5,2.1587983E3,3.9617227E4,3.357734E4,1.5488946E4,1.6455526E3,1.0744517E3,3.6863364E3,1.2854878E2,1.6231288E3,6.611292E3,2.759617E3,4.6066094E3,2.402701E4,4.1199646E1,3.863408E4,6.4561646E2,3.5599807E3,1.6127788E4,1.3617866E4,7.168521E2],"tree_param":{"num_deleted":"0","num_feature":"272","num_nodes":"61","size_leaf_vector":"1"}},{"base_weights":[1.3246149E-2,-1.8885837E-1,6.928301E-1,-3.4108713E-1,6.231101E-2,3.0373242E-1,8.124888E-1,-8.673005E-2,-4.6613145E-1,5.9794784E-1,9.875196E-3,3.4847292E-1,-1E0,8.984032E-1,6.808903E-1,-1.4364807E-1,5.024403E-1,-6.558689E-2,-5.9639674E-1,-4.7747588E-1,6.636775E-1,-7.128047E-2,3.5129267E-1,1.4806563E-1,7.0552856E-1,-1E0,9.4552886E-1,8.6592543E-1,1E0,5.6490034E-1,8.9032495E-1,3.0695288E-3,-1.6296787E-2,3.3110626E-2,-1.5177287E-2,2.2431886E-2,-7.0746453E-3,-3.490233E-2,-1.2857671E-2,-5E-2,3.0872663E-2,4.184549E-2,1.8205669E-2,4.74516E-3,-1.4326863E-2,1.0745488E-2,3.0321449E-2,2.941752E-2,-2.7910387E-3,3.162844E-3,3.9384175E-2,-5E-2,3.0635255E-3,5E-2,-5E-2,4.3389063E-2,-5E-2,5E-2,-5E-2,4.8637893E-2,2.3794232E-2,5E-2,3.137088E-2],"categories":[],"categories_nodes":[],"categories_segments":[],"categories_sizes":[],"default_left":[0,0,0,0,0,0,0,0,0,0,0,0,0,0,0,0,0,0,0,0,0,0,0,0,0,0,0,0,0,0,0,0,0,0,0,0,0,0,0,0,0,0,0,0,0,0,0,0,0,0,0,0,0,0,0,0,0,0,0,0,0,0,0],"id":24,"left_children":[1,3,5,7,9,11,13,15,17,19,21,23,25,27,29,31,33,35,37,39,41,43,45,47,49,51,53,55,57,59,61,-1,-1,-1,-1,-1,-1,-1,-1,-1,-1,-1,-1,-1,-1,-1,-1,-1,-1,-1,-1,-1,-1,-1,-1,-1,-1,-1,-1,-1,-1,-1,-1],"loss_changes":[7.466635E4,1.6021297E4,5.8016367E3,8.297988E3,4.4411636E3,2.0683745E3,1.076918E3,2.8836306E3,9.12618E3,9.9695215E2,3.9906965E3,2.0418279E3,3.322998E2,3.1766797E2,9.1405273E2,2.9308071E3,9.757241E2,1.6755518E3,4.551172E3,5.7194885E2,6.892412E2,4.162713E3,9.623535E2,1.6408639E3,5.412412E2,2.323169E1,1.946694E2,2.656836E2,1.23083984E2,8.7929736E2,4.8369043E2,0E0,0E0,0E0,0E0,0E0,0E0,0E0,0E0,0E0,0E0,0E0,0E0,0E0,0E0,0E0,0E0,0E0,0E0,0E0,0E0,0E0,0E0,0E0,0E0,0E0,0E0,0E0,0E0,0E0,0E0,0E0,0E0],"parents":[2147483647,0,0,1,1,2,2,3,3,4,4,5,5,6,6,7,7,8,8,9,9,10,10,11,11,12,12,13,13,14,14,15,15,16,16,17,17,18,18,19,19,20,20,21,21,22,22,23,23,24,24,25,25,26,26,27,27,28,28,29,29,30,30],"right_children":[2,4,6,8,10,12,14,16,18,20,22,24,26,28,30,32,34,36,38,40,42,44,46,48,50,52,54,56,58,60,62,-1,-1,-1,-1,-1,-1,-1,-1,-1,-1,-1,-1,-1,-1,-1,-1,-1,-1,-1,-1,-1,-1,-1,-1,-1,-1,-1,-1,-1,-1,-1,-1],"split_conditions":[4.8E1,4E0,5.9E1,1.1E1,7.3E1,5.6E1,4.6E1,3E0,7E0,4.2E1,2.9E1,3.77E1,2.17E1,1.04E2,1E1,4.8E1,4.9E0,5.5E1,2.3E1,4.582576E0,3.7E1,3.85E0,1.27E0,8E0,2.65718E0,9.81E1,5.4E1,1.57E2,1.09E2,7E0,8.05E1,3.0695288E-3,-1.6296787E-2,3.3110626E-2,-1.5177287E-2,2.2431886E-2,-7.0746453E-3,-3.490233E-2,-1.2857671E-2,-5E-2,3.0872663E-2,4.184549E-2,1.8205669E-2,4.74516E-3,-1.4326863E-2,1.0745488E-2,3.0321449E-2,2.941752E-2,-2.7910387E-3,3.162844E-3,3.9384175E-2,-5E-2,3.0635255E-3,5E-2,-5E-2,4.3389063E-2,-5E-2,5E-2,-5E-2,4.8637893E-2,2.3794232E-2,5E-2,3.137088E-2],"split_indices":[112,147,112,112,217,21,82,236,72,127,7,243,194,72,52,43,181,95,7,198,40,181,115,173,44,238,176,217,95,173,129,0,0,0,0,0,0,0,0,0,0,0,0,0,0,0,0,0,0,0,0,0,0,0,0,0,0,0,0,0,0,0,0],"split_type":[0,0,0,0,0,0,0,0,0,0,0,0,0,0,0,0,0,0,0,0,0,0,0,0,0,0,0,0,0,0,0,0,0,0,0,0,0,0,0,0,0,0,0,0,0,0,0,0,0,0,0,0,0,0,0,0,0,0,0,0,0,0,0],"sum_hessian":[5.43631E5,4.1901803E5,1.2461293E5,2.6089464E5,1.581234E5,2.9309598E4,9.5303336E4,8.598704E4,1.7490761E5,1.40982295E4,1.4402517E5,2.8534924E4,7.746729E2,5.765639E4,3.7646945E4,7.841258E4,7.5744546E3,4.2924207E4,1.3198339E5,8.1168726E2,1.3286542E4,1.1636561E5,2.7659566E4,1.8277557E4,1.0257366E4,6.876167E2,8.705617E1,5.083317E4,6.823217E3,2.4230955E4,1.341599E4,3.6903684E4,4.15089E4,6.321508E3,1.2529465E3,5.5205283E3,3.740368E4,1.0155325E5,3.0430146E4,5.088681E2,3.0281915E2,8.417226E3,4.8693164E3,6.566846E4,5.069715E4,1.8025756E4,9.63381E3,5.784427E3,1.2493131E4,1.1634563E3,9.09391E3,6.6710236E2,2.0514366E1,6.2017876E1,2.5038296E1,5.080865E4,2.4524687E1,6.813606E3,9.610737E0,4.339242E3,1.9891713E4,8.762852E3,4.6531387E3],"tree_param":{"num_deleted":"0","num_feature":"272","num_nodes":"63","size_leaf_vector":"1"}},{"base_weights":[1.7723152E-2,-1.7182511E-1,6.8620944E-1,1.07754804E-1,-3.0162042E-1,3.29111E-1,7.859237E-1,2.3542768E-1,-8.5012116E-2,-4.247511E-1,3.131649E-2,3.682495E-1,-1E0,9.09096E-1,6.9563687E-1,3.9811304E-1,7.756017E-2,-2.010149E-1,3.218827E-1,-5.021691E-1,6.266685E-2,3.5078964E-1,-8.361394E-2,1.8636471E-1,6.739985E-1,-5E-2,1E0,9.1343105E-1,-3.0037424E-1,4.6955702E-1,7.889602E-1,1.0692049E-2,3.0229574E-2,6.8914904E-3,-2.9607236E-2,-2.2033328E-2,4.0486525E-3,2.5400344E-2,3.3468087E-3,-1.9775077E-3,-2.9092008E-2,1.7337564E-2,-1.3897382E-2,2.726451E-2,-1.2698017E-4,6.2166136E-3,-1.32806245E-2,3.0708214E-2,-1.2306827E-3,3.4586977E-2,-5E-2,5E-2,-5E-2,4.577886E-2,-5E-2,5E-2,-5E-2,3.915791E-2,1.1061634E-2,3.17049E-2,4.300157E-2],"categories":[],"categories_nodes":[],"categories_segments":[],"categories_sizes":[],"default_left":[0,0,0,0,0,0,0,0,0,0,0,0,0,0,0,0,0,0,0,0,0,0,0,0,0,0,0,0,0,0,0,0,0,0,0,0,0,0,0,0,0,0,0,0,0,0,0,0,0,0,0,0,0,0,0,0,0,0,0,0,0],"id":25,"left_children":[1,3,5,7,9,11,13,15,17,19,21,23,25,27,29,31,33,35,37,39,41,43,45,47,49,-1,51,53,55,57,59,-1,-1,-1,-1,-1,-1,-1,-1,-1,-1,-1,-1,-1,-1,-1,-1,-1,-1,-1,-1,-1,-1,-1,-1,-1,-1,-1,-1,-1,-1],"loss_changes":[6.863161E4,1.531319E4,4.2603594E3,3.2928599E3,1.1814441E4,1.5219211E3,1.0395508E3,2.0671016E3,2.5162832E3,7.9389375E3,2.8569355E3,1.4157686E3,5.923779E2,2.076875E2,1.1384551E3,1.5080454E3,1.6488936E3,2.8034077E3,5.611632E2,6.6914375E3,2.7904607E3,1.4147292E3,2.165705E3,1.4409893E3,3.7039746E2,0E0,1.4453357E2,1.9639844E2,2.8675616E2,1.2281753E3,4.199414E2,0E0,0E0,0E0,0E0,0E0,0E0,0E0,0E0,0E0,0E0,0E0,0E0,0E0,0E0,0E0,0E0,0E0,0E0,0E0,0E0,0E0,0E0,0E0,0E0,0E0,0E0,0E0,0E0,0E0,0E0],"parents":[2147483647,0,0,1,1,2,2,3,3,4,4,5,5,6,6,7,7,8,8,9,9,10,10,11,11,12,12,13,13,14,14,15,15,16,16,17,17,18,18,19,19,20,20,21,21,22,22,23,23,24,24,26,26,27,27,28,28,29,29,30,30],"right_children":[2,4,6,8,10,12,14,16,18,20,22,24,26,28,30,32,34,36,38,40,42,44,46,48,50,-1,52,54,56,58,60,-1,-1,-1,-1,-1,-1,-1,-1,-1,-1,-1,-1,-1,-1,-1,-1,-1,-1,-1,-1,-1,-1,-1,-1,-1,-1,-1,-1,-1,-1],"split_conditions":[4.9E1,4E0,5.9E1,3.53E1,1.7E1,5.6E1,5.1E1,2E1,8E0,3E0,9.2E1,3.767E1,2.17E1,7.6E1,3.711E1,7E-1,1.7E1,9.85E1,7.233E1,8.95E1,9.367E1,4.6E1,1E1,7E0,7.25E1,-5E-2,5.4E1,5.9E0,-3.3333334E-1,1.1E1,9.574271E-1,1.0692049E-2,3.0229574E-2,6.8914904E-3,-2.9607236E-2,-2.2033328E-2,4.0486525E-3,2.5400344E-2,3.3468087E-3,-1.9775077E-3,-2.9092008E-2,1.7337564E-2,-1.3897382E-2,2.726451E-2,-1.2698017E-4,6.2166136E-3,-1.32806245E-2,3.0708214E-2,-1.2306827E-3,3.4586977E-2,-5E-2,5E-2,-5E-2,4.577886E-2,-5E-2,5E-2,-5E-2,3.915791E-2,1.1061634E-2,3.17049E-2,4.300157E-2],"split_indices":[112,72,112,242,195,21,42,81,79,236,216,243,194,21,243,115,139,86,129,159,120,41,112,270,41,0,176,14,261,270,162,0,0,0,0,0,0,0,0,0,0,0,0,0,0,0,0,0,0,0,0,0,0,0,0,0,0,0,0,0,0],"split_type":[0,0,0,0,0,0,0,0,0,0,0,0,0,0,0,0,0,0,0,0,0,0,0,0,0,0,0,0,0,0,0,0,0,0,0,0,0,0,0,0,0,0,0,0,0,0,0,0,0,0,0,0,0,0,0,0,0,0,0,0,0],"sum_hessian":[5.416395E5,4.219866E5,1.19652914E5,1.3379389E5,2.881927E5,2.6119092E4,9.353382E4,8.048624E4,5.3307656E4,2.1038527E5,7.780743E4,2.5459627E4,6.5946655E2,3.9558184E4,5.3975637E4,3.9637523E4,4.0848715E4,4.1481953E4,1.1825701E4,1.8154925E5,2.8836021E4,2.058502E4,5.7222414E4,1.5964332E4,9.495294E3,5.529315E2,1.06535034E2,3.941715E4,1.4103589E2,1.5772383E4,3.8203254E4,2.094614E4,1.8691383E4,3.747681E4,3.371906E3,2.2424012E4,1.9057941E4,6.8348867E3,4.990814E3,2.6672713E4,1.5487653E5,1.5722711E4,1.311331E4,1.3276198E4,7.3088203E3,2.6707512E4,3.0514902E4,5.272138E3,1.0692193E4,9.426936E3,6.835928E1,8.76427E1,1.8892338E1,3.9382668E4,3.448131E1,6.8465744E1,7.2570145E1,6.9691304E3,8.803253E3,1.2020598E4,2.6182656E4],"tree_param":{"num_deleted":"0","num_feature":"272","num_nodes":"61","size_leaf_vector":"1"}},{"base_weights":[1.6499765E-2,-1.6557124E-1,6.4506626E-1,2.4002087E-1,-2.5311932E-1,2.9395032E-1,7.5810343E-1,4.3457127E-1,-7.990968E-2,-3.5196522E-1,5.772604E-2,1.1325389E-1,6.0029995E-1,8.4916764E-1,6.192727E-1,6.087524E-1,2.4812731E-1,3.2297152E-1,-2.492873E-1,-1.3564396E-1,-4.7279745E-1,3.4143066E-1,-1.0670502E-1,5.476531E-1,-6.661601E-2,5.0576633E-1,1E0,8.170997E-1,1E0,5.016984E-1,8.7283856E-1,3.9250094E-2,2.4996793E-2,-6.830377E-3,2.0290015E-2,-5E-2,1.9262122E-2,3.0904347E-2,-1.786582E-2,-1.0555457E-2,1.3348475E-2,-2.9675229E-2,-4.016601E-3,3.0901581E-2,8.194336E-3,-1.0693724E-2,2.1950046E-2,-5E-2,3.0035302E-2,3.1011347E-2,-1.0354805E-2,-4.706695E-3,3.0896394E-2,5E-2,-5E-2,4.1098755E-2,-1.9579919E-2,5E-2,9.871851E-3,4.2860422E-2,2.0554593E-2,4.4351235E-2,-4.4381876E-2],"categories":[],"categories_nodes":[],"categories_segments":[],"categories_sizes":[],"default_left":[0,0,0,0,0,0,0,0,0,0,0,0,0,0,0,0,0,0,0,0,0,0,0,0,0,0,0,0,0,0,0,0,0,0,0,0,0,0,0,0,0,0,0,0,0,0,0,0,0,0,0,0,0,0,0,0,0,0,0,0,0,0,0],"id":26,"left_children":[1,3,5,7,9,11,13,15,17,19,21,23,25,27,29,31,33,35,37,39,41,43,45,47,49,51,53,55,57,59,61,-1,-1,-1,-1,-1,-1,-1,-1,-1,-1,-1,-1,-1,-1,-1,-1,-1,-1,-1,-1,-1,-1,-1,-1,-1,-1,-1,-1,-1,-1,-1,-1],"loss_changes":[6.1529523E4,1.4803145E4,4.7924453E3,4.606663E3,1.0535131E4,1.6279404E3,1.1543242E3,1.4944756E3,1.9099529E3,6.799881E3,3.859195E3,1.4455212E3,5.0355176E2,3.711289E2,1.0784072E3,4.559453E2,1.3486467E3,8.2274756E2,1.8465767E3,2.8328862E3,7.9072656E3,1.490562E3,3.0630117E3,